{"fc1.weight": [[-0.09624968469142914, 0.09615073353052139, -0.19523461163043976, -0.10538657009601593, -0.1186736598610878, -0.06022275611758232, -0.023310987278819084, 0.10737563669681549, 0.035155635327100754, -0.06939631700515747, -0.12912514805793762, -0.09829487651586533, -0.12528645992279053, -0.07865149527788162, -0.07747898250818253, 0.03974643349647522, -0.024509109556674957, 0.05949459597468376, -0.11236599087715149, -0.1560218781232834, 0.026919148862361908, 0.1586645543575287, -0.13622339069843292, 0.11261887848377228, 0.058058761060237885, -0.06959401071071625, 0.1256393939256668, -0.13402743637561798, -0.12348684668540955, -0.06867558509111404, -0.10938560217618942, 0.11534643918275833, -0.08810467272996902, -0.1278448849916458, -0.1521623134613037, -0.16206572949886322, -0.07109709084033966], [0.10514985024929047, 0.04439461603760719, 0.05509532615542412, -0.0595078244805336, -0.1422722041606903, 0.0074122254736721516, -0.27023985981941223, -0.12369976937770844, -0.14114952087402344, 0.010367062874138355, 0.11482326686382294, -0.12996044754981995, -0.10914691537618637, 0.05473611503839493, 0.03380340710282326, 0.05258699506521225, -0.0816834345459938, 0.11650247126817703, -0.15120291709899902, -0.1277584284543991, -0.09585902839899063, -0.21044212579727173, -0.12930625677108765, 0.004089597146958113, 0.02671336568892002, -0.1712264120578766, 0.06301384419202805, 0.07762741297483444, -0.12548035383224487, 0.023570414632558823, -0.02758833020925522, -0.018514001742005348, 0.19377219676971436, -0.1724216639995575, 0.043895795941352844, 0.061618056148290634, 0.0965183824300766], [0.13755543529987335, 0.14351630210876465, 0.01741880364716053, -0.1483510583639145, -0.031169697642326355, -0.014770356938242912, -0.18497194349765778, 0.13529078662395477, 0.04982591047883034, -0.23416569828987122, 0.02388574555516243, -0.08728278428316116, 0.018389897421002388, -0.0553663969039917, 0.09092060476541519, -0.14674997329711914, 0.05076451599597931, 0.1405695378780365, 0.044004399329423904, 0.04336350038647652, -0.13070392608642578, -0.04959610849618912, 0.0530552975833416, -0.04145759344100952, -0.08220638334751129, -0.18661892414093018, 0.1840730607509613, 0.093363456428051, -0.04001724720001221, -0.07361042499542236, -0.08506658673286438, 0.02301274798810482, -0.2055988311767578, -0.1645425707101822, -0.008338890969753265, 0.06748126447200775, -0.04427441582083702], [0.19904638826847076, -0.05144181102514267, 0.13577857613563538, 0.08433127403259277, -0.2736743688583374, 0.04396110773086548, 0.017777351662516594, 0.0010475077433511615, 0.09002076089382172, 0.03090442158281803, 0.013243249617516994, -0.06209525465965271, 0.09937100112438202, -0.07771169394254684, -0.12017883360385895, 0.025241423398256302, -0.13731133937835693, -0.035595186054706573, -0.07366155833005905, -0.1786792129278183, 0.09103477746248245, -0.08292963355779648, 0.02006489410996437, 0.10909738391637802, -0.06734350323677063, -0.044611189514398575, 0.15526920557022095, 0.0005735314916819334, 0.17216816544532776, 0.20209109783172607, 0.10794439166784286, 0.15241128206253052, 0.0525406114757061, -0.020982714369893074, -0.21391306817531586, 0.0379670113325119, -0.0003872330707963556], [-0.030732154846191406, -0.10055647790431976, -0.09390415996313095, -0.13455025851726532, -0.0317133292555809, 0.29772764444351196, -0.07793191820383072, -0.2886212170124054, -0.07093463093042374, -0.8535336852073669, 0.036619074642658234, -0.04813261330127716, -0.01671534776687622, 0.05298841744661331, -0.11456025391817093, -0.08746889978647232, 0.029306037351489067, 0.01613037846982479, -0.01746056042611599, 0.11809972673654556, -0.11160112917423248, 0.07593518495559692, 0.10978920757770538, 0.05522967875003815, 0.23158681392669678, 0.10954413563013077, -0.034204959869384766, 0.11793197691440582, 0.02499965950846672, -0.09374191612005234, 0.13253885507583618, 0.03330500051379204, 0.05622498691082001, 0.018535198643803596, 0.04571047052741051, 0.019149169325828552, 0.007993494160473347], [0.006242081988602877, -0.051398757845163345, -0.05498456209897995, -0.14940018951892853, 0.08751676231622696, 0.13095030188560486, 0.05945870652794838, -0.11651536822319031, -0.08644416928291321, -0.2799038887023926, -0.09725561738014221, -0.13936150074005127, 0.01022572722285986, -0.11605727672576904, -0.06134090945124626, -0.07396814972162247, 0.05534764751791954, -0.10513158142566681, -0.03710652515292168, -0.07766655087471008, 0.049978695809841156, -0.05255308002233505, 0.1328430473804474, 0.026164352893829346, 0.03890861198306084, -0.09190821647644043, -0.02448900416493416, 0.0010609900346025825, 0.035309553146362305, 0.07752057909965515, -0.03574101999402046, -0.1268550306558609, -0.07553365081548691, 0.045306723564863205, -0.15105240046977997, -0.0035572638735175133, 0.14010511338710785], [0.06797868013381958, -0.03003368154168129, -0.04683057218790054, 0.023255325853824615, -0.13058359920978546, -0.042616311460733414, -0.023857412859797478, 0.0068660518154501915, 0.009803732857108116, -0.004101124592125416, -0.026255670934915543, 0.12499820441007614, 0.08670260012149811, 0.1064329668879509, 0.11776632070541382, -0.072243332862854, -0.055465321987867355, 0.0317847803235054, 0.011825439520180225, 0.1390880048274994, -0.1048603504896164, 0.04943086579442024, 0.08777366578578949, -0.045369017869234085, 0.13176758587360382, -0.13525013625621796, 0.037685878574848175, -0.06947825849056244, -0.035021938383579254, -0.01123017631471157, 0.24581067264080048, -0.11196671426296234, -0.2036135196685791, -0.11271165311336517, -0.7141751646995544, 0.029203025624155998, -0.007197292987257242], [-0.09016338735818863, -0.07885576039552689, 0.09528976678848267, 0.07553411275148392, 0.1275833249092102, -0.002440190175548196, 0.008538024500012398, -0.03986286744475365, 0.090606689453125, 0.2822844982147217, 0.022799460217356682, -0.029674261808395386, -0.11733343452215195, -0.11947660893201828, 0.07869451493024826, -0.13926975429058075, -0.07954317331314087, 0.1508927047252655, -0.10534801334142685, -0.01638072170317173, 0.018216852098703384, 0.018141351640224457, -0.1155853196978569, -0.04648708552122116, 0.3494113087654114, -0.006634918507188559, 0.18559673428535461, 0.0012468507047742605, 0.016256773844361305, 0.025138745084404945, 0.05056068301200867, -0.12680767476558685, 0.012936347164213657, 0.034011632204055786, 0.09682796150445938, -0.043407853692770004, -0.05431963503360748], [0.14778247475624084, -0.1599990278482437, 0.09871277958154678, -0.056445736438035965, -0.138999342918396, -0.09891031682491302, 0.06469142436981201, 0.1988103985786438, -0.013649217784404755, 0.16573207080364227, 0.09203469008207321, 0.018718628212809563, 0.04086020216345787, -0.014157716184854507, -0.2025834023952484, -0.06230419501662254, -0.01793808490037918, 0.006936900317668915, 0.16272354125976562, 0.03198014572262764, -0.10806576162576675, 0.04581405594944954, 0.09885843843221664, -0.08548267185688019, -0.1075383797287941, -0.031269971281290054, -0.10656369477510452, 0.07845239341259003, 0.10996360331773758, 0.16157564520835876, 0.0897437259554863, 0.07397115975618362, 0.11397252231836319, -0.1465945839881897, -0.266500324010849, -0.152413010597229, 0.12247291952371597], [0.05233138054609299, -0.06884262710809708, 0.09550979733467102, 0.17352497577667236, 0.19075661897659302, 0.14084957540035248, 0.16862967610359192, -0.010455780662596226, -0.03575493022799492, -0.001336103305220604, 0.0988256186246872, -0.11596780270338058, 0.18557041883468628, 0.11452876776456833, 0.046439193189144135, -0.07107401639223099, 0.03767197206616402, -0.025665786117315292, 0.12848030030727386, 0.0035980865359306335, 0.03159653767943382, 0.10300620645284653, 0.08321548253297806, -0.048204705119132996, 0.10271988809108734, -0.07355460524559021, 0.008638301864266396, -0.14881600439548492, -0.10101225972175598, -0.2768009901046753, 0.2053820788860321, 0.1119903177022934, 0.09760942310094833, 0.09335366636514664, -0.24274274706840515, -0.09329811483621597, -0.028032353147864342], [-0.0965767428278923, 0.13229522109031677, -0.11281734704971313, -0.030723506584763527, -0.06817775964736938, -0.07512561231851578, 0.12118281424045563, 0.15114621818065643, 0.20142412185668945, 0.2186715006828308, 0.1761663556098938, -0.05601945519447327, 0.09176559001207352, 0.1933845728635788, 0.020412666723132133, 0.21052342653274536, 0.10776163637638092, 0.09246525913476944, -0.04101327061653137, 0.08055375516414642, 0.014196831732988358, -0.006602659821510315, -0.0950794368982315, -0.009784155525267124, -0.09588872641324997, 0.15218228101730347, 0.10225165635347366, 0.009329580701887608, -0.06778760254383087, 0.018010910600423813, 0.22492088377475739, -0.01308549102395773, -0.12949003279209137, 0.11164788156747818, -0.06290421634912491, -0.07144104689359665, 0.12890440225601196], [0.1793738752603531, -0.04902675002813339, 0.15076357126235962, -0.08088354021310806, 0.00075579434633255, 0.2727789580821991, -0.07492049038410187, -0.14113326370716095, -0.24137087166309357, -0.780908465385437, 0.02559349313378334, 0.05391834303736687, 0.23081748187541962, -0.0240843053907156, -0.10193262249231339, 0.075929194688797, 0.06629496812820435, 0.12703973054885864, -0.1166575700044632, -0.010685276240110397, -0.07570797204971313, -0.007956944406032562, 0.08313515782356262, -0.05258671194314957, 0.0818975493311882, 0.22838088870048523, 0.020697133615612984, -0.08308287709951401, -0.14005501568317413, -0.03293786570429802, -0.08446047455072403, 0.11075318604707718, -0.04765862971544266, -0.2471054345369339, -0.19025614857673645, -0.015047943219542503, 0.06773759424686432], [-0.15188506245613098, 0.12342748045921326, -0.09616613388061523, 0.09807267785072327, 0.06644783914089203, -0.20833565294742584, 0.15289078652858734, 0.11708401888608932, 0.16374869644641876, 0.1588122844696045, -0.10134068131446838, 0.16127857565879822, 0.01001497358083725, 0.002981003141030669, -0.21630865335464478, -0.07495240122079849, -0.16036799550056458, -0.08704879879951477, 0.10319894552230835, -0.06212989240884781, -0.028454575687646866, 0.13642562925815582, 0.00016503642837051302, -0.022775957360863686, -0.11724267154932022, -0.04940250515937805, -0.0191115140914917, 0.1846984624862671, 0.14853011071681976, 0.052478183060884476, 0.10621275752782822, -0.1665281057357788, -0.17267577350139618, 0.03778940439224243, -0.00685835862532258, -0.012907233089208603, -0.07142654061317444], [-0.11764103174209595, -0.13093045353889465, 0.16642189025878906, 0.060620397329330444, 0.13588300347328186, 0.19567257165908813, 0.1081000342965126, -0.00024847060558386147, -0.07022117078304291, -0.14991974830627441, 0.06227870285511017, 0.09096086025238037, -0.05162571370601654, 0.14168426394462585, -0.027321087196469307, -0.12240418791770935, -0.04744602367281914, 0.2061808556318283, 0.14447005093097687, -0.02607603743672371, 0.18602293729782104, 0.0691174641251564, 0.1452125459909439, 0.1346631944179535, -0.1085912212729454, 0.07523900270462036, 0.08998679369688034, -0.0007567731663584709, 0.08690402656793594, -0.03665592893958092, 0.08862361311912537, 0.04984773322939873, -0.01543771754950285, 0.0449279248714447, 0.06412370502948761, -0.04166385158896446, 0.010056464932858944], [0.0026514031924307346, 0.00913971196860075, 0.08773040026426315, -0.014538808725774288, 0.017690083011984825, -0.15001724660396576, -0.08400813490152359, 0.004377071280032396, 0.11195643246173859, 0.06645765900611877, 0.12220688909292221, -0.14429035782814026, 0.14866769313812256, 0.08396397531032562, -0.1546381115913391, -0.23580598831176758, -0.13958917558193207, 0.04211774840950966, 0.02287151664495468, -0.09023948013782501, -0.04450523853302002, 0.05716944485902786, -0.03209373727440834, -0.16996805369853973, -0.02400205284357071, -0.12904313206672668, 0.074320487678051, 0.11682632565498352, -0.01793932169675827, 0.02425367198884487, -0.12506772577762604, 0.18409357964992523, -0.15925709903240204, -0.00933721475303173, 0.23341763019561768, -0.1517166644334793, 0.020846396684646606], [-0.01693434827029705, -0.04578700289130211, -0.08705112338066101, 0.1502496898174286, -0.12709040939807892, -0.16550132632255554, -0.0740152895450592, -0.131865993142128, 0.1256333440542221, -0.01759117655456066, 0.24147538840770721, -0.06032788008451462, -0.07890547811985016, 0.04844014346599579, 0.07915878295898438, 0.09416279196739197, 0.06157253682613373, -0.01028467994183302, -0.0939728394150734, -0.004715224262326956, 0.17306768894195557, -0.09443051367998123, -0.1489727795124054, 0.03783898055553436, 0.14888350665569305, -0.1044069305062294, -0.1507950723171234, -0.1004541888833046, 0.03225669264793396, 0.009451489895582199, -0.06213083490729332, 0.010623528622090816, 0.007652029860764742, 0.1502918154001236, 0.15311704576015472, -0.052466247230768204, -0.10376885533332825], [-0.17181245982646942, 0.2004854381084442, 0.055313218384981155, 0.022634312510490417, -0.1534835249185562, 0.10119571536779404, 0.24512290954589844, 0.1571032702922821, -0.19038720428943634, -0.20113320648670197, -0.031984224915504456, 0.04456700384616852, -0.08259349316358566, -0.02445237897336483, 0.165390282869339, -0.17101812362670898, 0.07593105733394623, -0.06426648795604706, -0.08561167120933533, -0.13645853102207184, 0.18024872243404388, -0.10438278317451477, 0.03141644597053528, 0.13877935707569122, 0.21643812954425812, -0.02953489124774933, 0.1525113731622696, 0.0570552684366703, -0.045648135244846344, 0.057770323008298874, 0.09644225984811783, -0.18108509480953217, -0.0934203565120697, -0.08855269849300385, 0.18834039568901062, -0.017808346077799797, -0.0534423403441906], [0.009223584085702896, 0.07764611393213272, 0.05831780284643173, 0.07728338986635208, 0.03101809322834015, 0.0468832291662693, -0.06595377624034882, -0.03245193883776665, -0.061924856156110764, -0.055668994784355164, 0.05831765756011009, -0.09042254835367203, 0.09318464994430542, 0.07856307178735733, 0.008515238761901855, -0.0812891349196434, 0.14872081577777863, -0.05332935228943825, 0.09082121402025223, -0.0972261130809784, 0.008745578117668629, 0.10600009560585022, -0.09520439058542252, 0.10212306678295135, -0.26491400599479675, -0.09379564225673676, -0.12474130839109421, 0.04893478378653526, 0.1659735143184662, -0.1065462976694107, 0.1295570731163025, -0.06271809339523315, -0.07958072423934937, 0.057444777339696884, -0.32824811339378357, 0.06931643187999725, 0.1252782940864563], [-0.04409528896212578, 0.1385594606399536, -0.004766879603266716, 0.18774943053722382, -0.07886844128370285, -0.07243736833333969, 0.019297195598483086, 0.07945956289768219, 0.09738906472921371, 0.13513386249542236, 0.03509591519832611, -0.008907463401556015, 0.10380329191684723, -0.04516516253352165, 0.2638465464115143, -0.13950514793395996, -0.002692346228286624, 0.07598743587732315, 0.05829305574297905, 0.1488002985715866, 0.016958750784397125, -0.11072324216365814, 0.06917230039834976, 0.042577605694532394, 0.2815541625022888, -0.08611439168453217, 0.051478635519742966, 0.21500937640666962, 0.06757229566574097, -0.20787164568901062, 0.13732323050498962, -0.13218572735786438, 0.04096661135554314, 0.07345163077116013, 0.0900714099407196, 0.0031510740518569946, -0.07406307756900787], [-0.00037121769855730236, -0.1475096195936203, 0.010259914211928844, 0.047051671892404556, 0.15670116245746613, -0.08008847385644913, 0.13547253608703613, -0.09787661582231522, -0.08944674581289291, -0.0885649174451828, -0.23063448071479797, 0.17202366888523102, -0.004063689149916172, -0.02026151493191719, -0.012263482436537743, 0.12582822144031525, 0.07865473628044128, 0.10524887591600418, -0.09152650088071823, -0.002975858049467206, -0.16455510258674622, -0.07104422152042389, 0.01378082949668169, 0.1767861396074295, -0.16607624292373657, 0.08334572613239288, -0.058261673897504807, -0.04422954469919205, 0.060736823827028275, -0.009717727079987526, 0.045879341661930084, -0.11280172318220139, 0.08811118453741074, -0.06749554723501205, -0.11831733584403992, 0.0691162720322609, -0.08040518313646317], [-0.16115163266658783, 0.0342804454267025, 0.09490899741649628, -0.02782515063881874, 0.07380925863981247, 0.1013580709695816, 0.025425337255001068, -0.047004349529743195, 0.029964199289679527, 0.3129783272743225, -0.11657457798719406, -0.07832322269678116, 0.16706329584121704, 0.071834996342659, -0.03504738584160805, -0.03914109617471695, -0.007056721020489931, 0.11493901908397675, -0.038659870624542236, -0.14474593102931976, 0.04687473177909851, -0.008892407640814781, -0.08161132037639618, 0.08498410135507584, -0.08955798298120499, -0.08558528870344162, -0.08331651240587234, 0.12333980947732925, -0.16048024594783783, -0.0697488933801651, 0.06268787384033203, -0.16763152182102203, 0.13144300878047943, -0.03899044916033745, 0.13347077369689941, -0.10759603977203369, 0.12308137863874435], [-0.1637098491191864, 0.2039799839258194, -0.1223873496055603, -0.1133001521229744, 0.13900898396968842, 0.033162474632263184, 0.036906588822603226, -0.11877751350402832, -0.06508512794971466, -0.17866069078445435, -0.051995523273944855, 0.021036075428128242, -0.07974439114332199, -0.00017844598914962262, 0.041071441024541855, 0.15779218077659607, 0.07431037724018097, 0.0011920819524675608, -0.17843061685562134, -0.14891615509986877, -0.06879523396492004, 0.03181600198149681, -0.05517834797501564, 0.009955154731869698, -0.06500615924596786, 0.16078485548496246, -0.11766691505908966, -0.022367339581251144, 0.17632973194122314, -0.06999162584543228, -0.08975783735513687, 0.12158151715993881, 0.03345732018351555, -0.16679514944553375, -0.07429896295070648, -0.019480649381875992, -0.06612776964902878], [0.04201756790280342, 0.10536161810159683, 0.001720377360470593, 0.15882062911987305, -0.03014560043811798, 0.14399220049381256, 0.19921255111694336, -0.026666726917028427, 0.10598955303430557, -0.1054491400718689, -0.00047015378368087113, -0.007475022692233324, 0.04474002122879028, -0.0054361275397241116, 0.082021065056324, 0.05258695408701897, 0.13340793550014496, 0.008660114370286465, 0.03155692294239998, -0.12596039474010468, -0.11533962935209274, 0.10479261726140976, 0.043260253965854645, 0.010191544890403748, 0.016413269564509392, 0.05881987884640694, 0.05475118011236191, 0.12738393247127533, 0.05310168117284775, -0.013110973872244358, 0.08077525347471237, 0.05265718698501587, 0.08146486431360245, 0.17942361533641815, 0.005071929655969143, 0.028688592836260796, 0.001788172870874405], [0.12397221475839615, 0.004614216275513172, 0.029805000871419907, 0.010788507759571075, -0.11392200738191605, 0.09760905057191849, -0.01488803792744875, 0.09133671969175339, -0.12878838181495667, 0.0674578920006752, 0.16486521065235138, 0.06449612975120544, 0.049480073153972626, 0.2373206913471222, -0.023189498111605644, -0.003241901285946369, -0.030486291274428368, 0.021876372396945953, 0.11643799394369125, 0.026935424655675888, 0.07055657356977463, -0.1511652022600174, 0.022700956091284752, 0.025219857692718506, 0.09619826823472977, 0.11323641985654831, 0.27539172768592834, -0.10488294810056686, 0.06946313381195068, -0.06203489750623703, -0.11997314542531967, -0.022088507190346718, 0.16164450347423553, 0.14541879296302795, 0.21341285109519958, 0.10107453912496567, -0.0784410610795021], [0.060108643025159836, 0.16085603833198547, 0.013775627128779888, 0.10967365652322769, 0.05780168995261192, 0.17757654190063477, -0.0924900695681572, 0.15789446234703064, -0.28640416264533997, -0.441879004240036, 0.06460636109113693, 0.11715331673622131, 0.18843039870262146, 0.18135423958301544, 0.1276429444551468, 0.1296139508485794, 0.14988428354263306, 0.05122129246592522, -0.12260253727436066, -0.06439362466335297, -0.01891643926501274, 0.013499137945473194, 0.13252437114715576, 0.009342647157609463, 0.0038775235880166292, 0.0536888912320137, 0.21277156472206116, 0.12442076206207275, -0.21449162065982819, -0.20110318064689636, 0.11701341718435287, 0.09336985647678375, 0.10935571044683456, -0.26560458540916443, -0.30163875222206116, 0.05935192480683327, 0.05496035888791084], [-0.07689619809389114, 0.08176042884588242, -0.07634791731834412, 0.1545901894569397, 0.04968102648854256, 0.32792624831199646, -0.3289607763290405, -0.19391191005706787, 0.009505415335297585, -0.6374028325080872, 0.10347359627485275, 0.1708792746067047, -0.01984303630888462, 0.16748987138271332, -0.09719827771186829, 0.08613691478967667, -0.06423944979906082, 0.013389268890023232, 0.029926085844635963, -0.06045999377965927, 0.06416825950145721, -0.14144989848136902, -0.10328579694032669, 0.036449335515499115, -0.07431415468454361, -0.049899034202098846, -0.00135000457521528, -0.07248525321483612, -0.12237469106912613, 0.013371709734201431, 0.14290575683116913, 0.09507125616073608, -0.05441564694046974, 0.02640666998922825, -0.11206762492656708, -0.06672484427690506, 0.003906084457412362], [0.12742379307746887, -0.056941527873277664, -0.08290058374404907, -0.003777054836973548, 0.03159841150045395, -0.03636578470468521, 0.08921846002340317, 0.11802990734577179, 0.053615983575582504, -0.0008818696951493621, 0.17348332703113556, 0.10902062803506851, -0.03795749321579933, 0.10384182631969452, 0.08998625725507736, 0.17705188691616058, -0.11356202512979507, 0.11307897418737411, -0.019770482555031776, -0.2899344861507416, 0.12186785787343979, -0.06755038350820541, -0.015112537890672684, -0.04737452045083046, -0.28679370880126953, 0.036707330495119095, -0.015496880747377872, 0.11382725834846497, 0.022999819368124008, 0.03967934474349022, 0.06602903455495834, 0.03767698258161545, 0.11326956003904343, 0.0228244811296463, -0.12193942070007324, -0.01916525885462761, 0.0037279773969203234], [-0.0754091814160347, -0.007517885882407427, -0.04061976820230484, -0.01157513540238142, -0.0658300444483757, -0.2331642210483551, 0.1326480656862259, -0.12564916908740997, -0.017828326672315598, -0.30269595980644226, -0.058514807373285294, 0.07165432721376419, 0.05815369635820389, 0.03789818286895752, -0.14794477820396423, -0.09307955205440521, 0.1390083283185959, 0.1350397914648056, 0.0018212522845715284, -0.09779129177331924, -0.10203966498374939, 0.13015948235988617, 0.036654312163591385, 0.009216983802616596, -0.08216189593076706, -0.23645669221878052, -0.02930717170238495, -0.06997114419937134, 0.06582346558570862, -0.1253950148820877, -0.014780688099563122, 0.2237076610326767, 0.06436522305011749, -0.004978566896170378, -0.17934641242027283, 0.007692867890000343, -0.012694169767200947], [-0.12816761434078217, -0.029814092442393303, -0.039519235491752625, 0.07819987833499908, 0.0025243305135518312, 0.17900383472442627, -0.025975801050662994, -0.02653513476252556, 0.042638301849365234, 0.037651028484106064, 0.15528394281864166, 0.09972906112670898, -0.1292850524187088, 0.0701225996017456, -0.22478346526622772, -0.09751113504171371, 0.1838909089565277, 0.1058477908372879, -0.07358512282371521, 0.08998604863882065, 0.21456469595432281, 0.10659430176019669, 0.0930575355887413, -0.1266261786222458, -0.35682281851768494, 0.18822474777698517, 0.08132675290107727, 0.18513360619544983, -0.12056674063205719, -0.10756242275238037, 0.0793185606598854, -0.06485984474420547, 0.000674278533551842, -0.023144247010350227, -0.08967218548059464, -0.03894028812646866, 0.021885758265852928], [-0.06624310463666916, 0.0972123071551323, -0.01760537177324295, -0.037908777594566345, -0.012953297235071659, 0.27615395188331604, -0.016617100685834885, -0.06237552687525749, -0.08860450983047485, -0.36477434635162354, 0.025910761207342148, 0.12219209223985672, 0.145016148686409, 0.08908838778734207, 0.09231924265623093, -0.0046460311859846115, -0.0001494701864430681, 0.032391298562288284, 0.13686108589172363, 0.0374392569065094, 0.16041572391986847, 0.0881112590432167, -0.04311618581414223, -0.004365080501884222, -0.16575954854488373, 0.08330605179071426, -0.022022012621164322, 0.01020321436226368, 0.01950150541961193, 0.03263994678854942, 0.25637781620025635, -0.09673713147640228, -0.013631226494908333, -0.1407686471939087, -0.45724812150001526, 0.015572840347886086, 0.0074692037887871265], [-0.08490492403507233, -0.1213735044002533, -0.02118118852376938, 0.015767129138112068, 0.019197436049580574, -0.1492907702922821, 0.04571961984038353, -0.11283876746892929, -0.10382673889398575, -0.07321969419717789, 0.022016650065779686, -0.21259582042694092, -0.0999554991722107, -0.041154492646455765, -0.19189731776714325, 0.09917034208774567, -0.16159659624099731, -0.13927485048770905, -0.014671995304524899, -0.08123905211687088, -0.22410601377487183, 0.10183660686016083, 0.1550014615058899, 0.1250179409980774, -0.12321463972330093, -0.031277623027563095, -0.025659214705228806, 0.022233501076698303, 0.13166725635528564, -0.13166634738445282, 0.009548971429467201, 0.0990915298461914, -0.09438018500804901, -0.08069955557584763, 0.03308224678039551, -0.18855635821819305, 0.03133968263864517], [-0.14280135929584503, 0.06845938414335251, -0.15639466047286987, 0.04592287912964821, -0.2080220878124237, -0.1871301680803299, 0.008524002507328987, 0.061617668718099594, -0.09334785491228104, -0.05906686931848526, 0.09677274525165558, -0.06562008708715439, 0.07981657981872559, -0.11636783927679062, -0.04076094925403595, -0.03773602470755577, 0.1279817372560501, -0.006702526472508907, -0.14871744811534882, 0.02973027713596821, 0.04429969936609268, -0.16790735721588135, -0.10860644280910492, -0.03743833303451538, 0.12085996568202972, -0.08108577877283096, -0.15967220067977905, -0.05739038437604904, -0.04960843175649643, 0.03665323182940483, 0.07725987583398819, -0.12273862212896347, -0.14992770552635193, -0.00254645012319088, -0.11027197539806366, 0.15208572149276733, -0.12016969919204712], [-0.12244880199432373, -0.13456924259662628, -0.05098889768123627, 0.10673272609710693, 0.13601703941822052, -0.15242625772953033, -0.07903480529785156, 0.11906991899013519, 0.011219264939427376, 0.4343988001346588, -0.016241133213043213, -0.11214359104633331, 0.02885659784078598, -0.00152168283239007, 0.06614450365304947, -0.02773898094892502, 0.06743769347667694, 0.11634479463100433, 0.09509394317865372, -0.16111880540847778, -0.1564939171075821, -0.04787832126021385, -0.03904036059975624, 0.05748392269015312, -0.018055278807878494, -0.12216442078351974, -0.08799333870410919, -0.08511994034051895, -0.005175271537154913, -0.11446332931518555, -0.1722363829612732, -0.17742161452770233, 0.07734376192092896, 0.04122812673449516, -0.08288457244634628, 0.031557902693748474, 0.124348945915699], [0.00859402772039175, -0.037866488099098206, 0.021767569705843925, -0.020459020510315895, 0.035630177706480026, -0.058860622346401215, 0.05855633318424225, 0.08125486224889755, -0.10423711687326431, 0.07475175708532333, 0.23057717084884644, -0.08878714591264725, -0.1556602418422699, 0.08022301644086838, -0.2956906855106354, 0.0607399083673954, 0.0351945124566555, 0.08708960562944412, -0.08893733471632004, -0.14764580130577087, 0.1167241632938385, 0.009210378862917423, -0.11133068799972534, -0.14383193850517273, -0.292848140001297, -0.040762465447187424, -0.05465865135192871, 0.0276333037763834, 0.005019509699195623, 0.08064249902963638, 0.12760162353515625, 0.1189766675233841, -0.12828725576400757, 0.06678508222103119, 0.02311408333480358, 0.1231374517083168, -0.1278996616601944], [0.007759519852697849, 0.12716937065124512, 0.0095881512388587, 0.10030883550643921, 0.18261684477329254, -0.12963953614234924, 0.12728199362754822, 0.11198229342699051, 0.050937552005052567, 0.2754184603691101, 0.24191789329051971, 0.13673469424247742, -0.043602101504802704, 0.13410331308841705, -0.10032319277524948, -0.0822925716638565, 0.02964278869330883, -0.019016137346625328, 0.1716124564409256, 0.16118429601192474, 0.10390952974557877, 0.16996417939662933, -0.08787382394075394, 0.030775900930166245, -0.09067526459693909, 0.1305321604013443, 0.10299352556467056, -0.0700136199593544, -0.03603626787662506, 0.11194614320993423, 0.08820334076881409, -0.08181849867105484, 0.09652594476938248, 0.015884308144450188, -0.15006884932518005, -0.047796234488487244, -0.032171811908483505], [-0.11231476813554764, 0.007326487917453051, -0.07249942421913147, 0.1864837408065796, -0.07555513083934784, -0.0315680168569088, -0.0005371335428208113, 0.1128537654876709, 0.12035293877124786, 0.009033205918967724, 0.033066246658563614, -0.04747222363948822, -0.11941206455230713, -0.13107451796531677, -0.03287501633167267, 0.12069121748209, -0.01671730726957321, -0.011054475791752338, -0.0571850910782814, 0.07597751915454865, 0.1643095463514328, -0.1436709761619568, -0.1505163311958313, 0.07563979178667068, -0.07835345715284348, 0.018111232668161392, 0.025359097868204117, -0.019937213510274887, -0.11312804371118546, -0.20960015058517456, 0.10543110221624374, 0.042701590806245804, -0.0682690292596817, -0.1027621328830719, -0.09916552156209946, -0.0011179071152582765, -0.12775743007659912], [0.10140662640333176, 0.005056011490523815, -0.03740040585398674, 0.0019804707262665033, -0.020329667255282402, -0.1477862447500229, 0.021711118519306183, 0.07290536910295486, -0.013676116243004799, 0.19280554354190826, -0.020645322278141975, 0.18828056752681732, -0.10150070488452911, -0.015155382454395294, 0.09302020072937012, -0.19142980873584747, -0.041662849485874176, 0.24821028113365173, -0.0621831901371479, 0.1823035329580307, 0.12919695675373077, 0.11267071217298508, 0.05811144784092903, 0.12287940084934235, 0.007602941244840622, -0.07266850769519806, 0.01448784302920103, 0.08159156143665314, 0.11606369912624359, 0.23354469239711761, -0.06841481477022171, 0.025529982522130013, 0.08795377612113953, 0.053175054490566254, 0.19347186386585236, -0.033675093203783035, -0.0779469832777977], [0.20270326733589172, -0.08965300768613815, 0.07574358582496643, -0.1378210484981537, -0.13020825386047363, 0.08008186519145966, 0.0374697707593441, 0.024840226396918297, 0.008806365542113781, -0.05723411589860916, 0.043102312833070755, 0.1313135027885437, -0.028177963569760323, 0.030187951400876045, -0.07821612060070038, 0.2550329864025116, 0.10642724484205246, -0.01870632916688919, -0.10570591688156128, -0.3300108015537262, 0.16227476298809052, 0.008533270098268986, 0.13704262673854828, 0.1371411383152008, 0.16585882008075714, 0.13768289983272552, -0.022126492112874985, 0.06174761801958084, -0.08501332998275757, -0.0331399142742157, 0.030010420829057693, 0.028470627963542938, -0.09855058789253235, -0.13363921642303467, 0.03171904385089874, 0.011551386676728725, 0.00547937722876668], [0.03384828940033913, -0.0026507594157010317, 0.07942897081375122, 0.02123570255935192, 0.05099257454276085, -0.0668376088142395, 0.13667917251586914, 0.21895678341388702, 0.18645349144935608, 0.13437581062316895, 0.14696499705314636, -0.1615929752588272, -0.042820535600185394, 0.019052673131227493, -0.22209709882736206, -0.1336427628993988, -0.031203368678689003, -0.08037052303552628, -0.06344689428806305, 0.13050158321857452, 0.14383505284786224, 0.10405048727989197, -0.07775342464447021, -0.1648770123720169, -0.4965157210826874, 0.013537535443902016, 0.062066562473773956, -0.03506383299827576, 0.05695156008005142, -0.05810243636369705, 0.0973174050450325, -0.15263578295707703, -0.12034624814987183, 0.023372439667582512, -0.2292182892560959, -0.008075217716395855, 0.0003814164374489337], [-0.11207816749811172, -0.010291503742337227, -0.025041954591870308, -0.039203159511089325, -0.028903057798743248, 0.07574909925460815, -0.23792040348052979, -0.05846868455410004, 0.18347446620464325, 0.3806487023830414, -0.05241461843252182, 0.008146349340677261, -0.09789201617240906, -0.005701444577425718, 0.0047506908886134624, -0.02282404713332653, 0.010847286321222782, -0.04845520108938217, -0.07491672039031982, -0.0030068564228713512, -0.10981816053390503, -0.054514262825250626, -0.15768329799175262, 0.007307078223675489, 0.2012041062116623, 0.18381164968013763, -0.11035684496164322, -0.05433901026844978, 0.05894584208726883, 0.2823953628540039, 0.16893158853054047, -0.16004356741905212, -0.15806622803211212, -0.10375785827636719, 0.15369145572185516, 0.08885597437620163, 0.03591521456837654], [0.07186637818813324, 0.1225631907582283, 0.080828957259655, -0.005054033361375332, 0.12037227302789688, 0.11725937575101852, 0.07961031794548035, -0.012908571399748325, 0.13191650807857513, -0.028396347537636757, 0.0424017533659935, 0.16492098569869995, 0.09311281889677048, -0.08100289851427078, -0.042672548443078995, 0.07438746094703674, -0.00160542456433177, -0.08989561349153519, 0.1418362259864807, -0.0009642367949709296, 0.18067315220832825, -0.1210140734910965, 0.03215666860342026, -0.10966697335243225, -0.3185884356498718, -0.03673958033323288, -0.03698185458779335, 0.10892084985971451, 0.014222485013306141, 0.15595576167106628, 0.048909690231084824, 0.0020723016932606697, -0.08455958217382431, -0.15966174006462097, -0.2719590663909912, -0.1110500916838646, -0.03144458681344986], [0.0762970820069313, -0.03736552223563194, -0.005548517685383558, 0.14238499104976654, 0.02605486288666725, -0.007956286892294884, -0.03748295456171036, 0.12180133163928986, 0.200148805975914, -0.12383867055177689, -0.04942379519343376, 0.025280822068452835, -0.006873186677694321, 0.20654316246509552, 0.038571376353502274, 0.17467714846134186, 0.020925236865878105, 0.005091897211968899, 0.00644295010715723, -0.10814587771892548, 0.07545573264360428, 0.13189823925495148, 0.003903523553162813, 0.18537725508213043, -0.02030893787741661, 0.09078465402126312, 0.24361495673656464, -0.027235472574830055, 0.12932175397872925, 0.08429794013500214, -0.14167723059654236, 0.038725629448890686, 0.0673203393816948, -0.006599774584174156, 0.14267069101333618, 0.1442117840051651, 0.02582249790430069], [0.06177886575460434, 0.05049961432814598, -0.17339015007019043, -0.15535038709640503, -0.2559100091457367, -0.03362947702407837, 0.04666566848754883, -0.08235398679971695, -0.033089153468608856, -0.019836999475955963, 0.06603841483592987, -0.033325184136629105, -0.046352993696928024, -0.0518631637096405, -0.09310706704854965, 0.17189329862594604, -0.218424454331398, -0.086916483938694, -0.04509315639734268, -0.43049371242523193, -0.03532562404870987, -0.025677865371108055, 0.031706083565950394, -0.11425570398569107, 0.0797244980931282, 0.027973413467407227, 0.08124303072690964, 0.036647867411375046, -0.12099810689687729, -0.00409156596288085, 0.06408728659152985, -0.08473839610815048, -0.06350396573543549, 0.0811629593372345, 0.17443016171455383, -0.02618461288511753, 0.015714451670646667], [0.06916021555662155, -0.046883054077625275, 0.08936421573162079, 0.1698247194290161, 0.0008126687025651336, -0.007371419109404087, 0.03390926122665405, 0.05509486794471741, -0.10195634514093399, 0.010563714429736137, 0.19451196491718292, 0.03512689471244812, 0.059585947543382645, 0.04724055528640747, -0.10538803786039352, 0.12807436287403107, -0.0031475191935896873, -0.07557544112205505, 0.06025892496109009, -0.02292921207845211, 0.06972511857748032, -0.05969235673546791, 0.0729077011346817, -0.049801990389823914, -0.006915017496794462, 0.21564547717571259, 0.0012084274785593152, -0.14149194955825806, -0.03964131325483322, -0.06651553511619568, -0.006972549948841333, -0.11823718249797821, 0.14150318503379822, 0.09495353698730469, 0.08643954992294312, 0.04303748160600662, 0.04897645488381386], [0.05469396710395813, 0.15351644158363342, -0.04569687321782112, 0.011132060550153255, 0.08175374567508698, -0.04775640740990639, -0.10302471369504929, -0.08893593400716782, 0.11385386437177658, 0.2657383382320404, 0.18830560147762299, -0.01889856718480587, 0.05531714856624603, -0.1163904145359993, -0.38329991698265076, -0.12157133221626282, 0.11097122728824615, -0.00462472764775157, -0.04629946127533913, 0.04698828235268593, 0.010779809206724167, -0.1624642014503479, 0.0642462819814682, -0.0467318519949913, -0.35108187794685364, -0.08779016882181168, 0.0486125648021698, 0.12453273683786392, 0.03357020765542984, -0.012374946847558022, 0.018398793414235115, 0.03561272844672203, -0.060880146920681, -0.06500564515590668, 0.08024965971708298, 0.0631437599658966, -0.029459800571203232], [0.14337071776390076, -0.15644922852516174, 0.19421350955963135, 0.07106572389602661, -0.032485853880643845, 0.12533262372016907, 0.025475993752479553, -0.06478378921747208, -0.02592521719634533, -0.022161992266774178, -0.04355541616678238, 0.1429620236158371, -0.034405417740345, -0.0895998626947403, -0.05627225711941719, -0.0898841843008995, 0.09467446804046631, -0.07993605732917786, -0.09650761634111404, -0.10549705475568771, -0.04072824865579605, -0.07587774842977524, 0.05214131250977516, -0.17493434250354767, 0.10660488903522491, 0.054848238825798035, 0.09535834193229675, 0.06108102202415466, -0.06472814083099365, 0.1179952621459961, 0.16452710330486298, 0.06321597844362259, 0.15613678097724915, -0.15492315590381622, -0.0768555998802185, -0.007259428035467863, -0.11697916686534882], [0.010128340683877468, -0.09047126770019531, -0.121858149766922, -0.1328047811985016, 0.042643383145332336, -0.07294943928718567, -0.0734395757317543, -0.03997228294610977, 0.0559217594563961, 0.14972162246704102, -0.06254100054502487, -0.13534729182720184, 0.028445396572351456, 0.007471149321645498, 0.10650714486837387, 0.16828569769859314, 0.026392877101898193, -0.2288869470357895, 0.02670775167644024, -0.14598539471626282, -0.048977483063936234, -0.08485209196805954, -0.040627215057611465, -0.0009420019341632724, 0.2887239456176758, -0.12251616269350052, -0.019624866545200348, -0.19856463372707367, 0.029031256213784218, 0.10792598128318787, 0.14743822813034058, -0.010212646797299385, 0.008690249174833298, 0.03171795606613159, 0.12434415519237518, -0.006909690797328949, 0.096572145819664], [0.049729663878679276, -0.10520687699317932, 0.08147675544023514, 0.0170925073325634, -0.07636531442403793, 0.03282040357589722, -0.030151117593050003, -0.14231762290000916, -0.15355734527111053, -0.28650546073913574, -0.11459779739379883, -0.03049592114984989, 0.07830293476581573, 0.15729118883609772, -0.04049970209598541, 0.013077284209430218, -0.09051194787025452, -0.10401763767004013, -0.09342338144779205, -0.11071060597896576, 0.06771785765886307, -0.20007260143756866, 0.08348215371370316, -0.09251224994659424, 0.05870256945490837, 0.11892858147621155, -0.06634912639856339, -0.06715278327465057, 0.1423627883195877, 0.11939656734466553, -0.15271131694316864, -0.08700164407491684, -0.05688916891813278, -0.016905441880226135, 0.23741404712200165, -0.023593958467245102, 0.09979429841041565], [-0.06748796999454498, -0.04242563992738724, 0.07548309117555618, 0.15796351432800293, 0.16690179705619812, 0.0665748193860054, 0.0228669885545969, -0.08043935894966125, 0.0618438720703125, -0.4923761188983917, -0.01750696450471878, -0.18048574030399323, -0.045878373086452484, 0.019602131098508835, -0.024960102513432503, 0.16456402838230133, 0.10376615077257156, 0.10352198779582977, 0.10140001028776169, -0.07204736024141312, 0.1248071938753128, 0.07141435146331787, 0.08656394481658936, -0.05589025467634201, -0.03192702680826187, 0.016487957909703255, -0.09606538712978363, 0.09770943224430084, -0.14498677849769592, 0.0003727677103597671, -0.014450245536863804, -0.04480293020606041, -0.134324312210083, 0.07569310069084167, -0.34459325671195984, 0.08898403495550156, 0.06722225993871689], [0.14017799496650696, 0.03892718628048897, 0.042213305830955505, 0.0901593342423439, -0.007764593698084354, 0.050450410693883896, -0.13069544732570648, 0.01581774279475212, -0.09008903801441193, -0.03152705729007721, 0.006571956444531679, -0.2934976816177368, -0.09189319610595703, 0.10534831881523132, 0.1735665202140808, -0.14952132105827332, 0.016518928110599518, -0.10572173446416855, -0.16010980308055878, -0.15254831314086914, 0.025518735870718956, 0.012552850879728794, -0.13696880638599396, 0.026249533519148827, 0.24842946231365204, -0.03772649168968201, 0.15826909244060516, -0.04014095291495323, -0.11169147491455078, -0.07945430278778076, -0.025885839015245438, -0.14474375545978546, -0.06666934490203857, 0.05007699504494667, 0.09899279475212097, 0.11691366881132126, -0.07032611221075058], [0.036898933351039886, -0.08116453886032104, 0.11192158609628677, 0.07853316515684128, 0.040414758026599884, 0.08128625899553299, 0.11916568875312805, 0.08087722212076187, 0.10829604417085648, 0.11952550709247589, -0.03964127600193024, 0.20056244730949402, 0.11813481897115707, 0.1123431995511055, 0.0007209940231405199, -0.13764618337154388, -0.007335309870541096, 0.0906904861330986, 0.17314916849136353, 0.18145890533924103, 0.2147761434316635, -0.04176068305969238, -0.13032150268554688, 0.07624063640832901, -0.1668909341096878, -0.04249018430709839, -0.04016328230500221, -0.14247892796993256, -0.01338935736566782, 0.09178709238767624, 0.11678964644670486, -0.11592216044664383, -0.057286337018013, -0.14238137006759644, 0.02991456165909767, -0.06657662987709045, 0.0422280989587307], [-0.13005980849266052, -0.12795720994472504, -0.009073528461158276, -0.044232748448848724, 0.12168285250663757, 0.17831113934516907, -0.040409527719020844, -0.1812358945608139, -0.18447990715503693, -0.5246952772140503, -0.04507232829928398, 0.014258752577006817, 0.09000006318092346, 0.09239357709884644, 0.060959260910749435, -0.15319767594337463, 0.03139305114746094, 0.049520500004291534, -0.034519013017416, -0.03512318432331085, -0.034223783761262894, -0.11903910338878632, 0.09612695127725601, -0.012244544923305511, -0.05967485532164574, 0.052341822534799576, 0.027768054977059364, 0.09705141186714172, 0.1550218164920807, -0.007339168339967728, 0.006155320443212986, 0.15994316339492798, 0.11712769418954849, -0.07346730679273605, -0.03185827657580376, -0.06082732230424881, 0.09503600746393204], [0.04176044836640358, 0.13412240147590637, -0.0019352012313902378, 0.05467592179775238, -0.011464782059192657, 0.09251753985881805, -0.16749270260334015, -0.18982087075710297, -0.09640581160783768, -0.38891270756721497, 0.11678486317396164, 0.037784505635499954, 0.10578519105911255, 0.0750674232840538, -0.14575126767158508, -0.12183539569377899, -0.1735469102859497, 0.03922294080257416, -0.07784190773963928, -0.08733193576335907, 0.013072128407657146, 0.04853862524032593, 0.026653064414858818, 0.216117724776268, 0.16347277164459229, -0.07922495156526566, 0.04290260747075081, 0.03402242437005043, 0.15210720896720886, -0.12387696653604507, -0.011877582408487797, -0.07823201268911362, 0.10382437705993652, -0.08502277731895447, -0.13294406235218048, 0.09928915649652481, 0.12112989276647568], [0.02662939950823784, -0.05221856012940407, 0.07465109974145889, 0.03584902733564377, -0.11525908857584, -0.20233309268951416, 0.025309965014457703, -0.08480118960142136, -0.126552551984787, -0.07300645112991333, 0.017694396898150444, 0.022647513076663017, -0.05186625197529793, 0.006169493775814772, -0.004081507213413715, 0.1129370853304863, 0.11660915613174438, -0.036381982266902924, -0.02606765739619732, -0.30182698369026184, -0.07033300399780273, 0.04473407566547394, 0.06131768226623535, 0.08140040934085846, 0.1276892125606537, 0.2178768515586853, -0.2520754039287567, -0.019969714805483818, 0.08332713693380356, -0.5372107028961182, -0.0933791771531105, 0.031102562323212624, 0.03376178815960884, 0.05590454116463661, 0.16168777644634247, -0.008735772222280502, 0.0030042824801057577], [-0.015468901954591274, 0.1510472148656845, 0.14420729875564575, 0.04313480854034424, 0.01640343852341175, 0.017277712002396584, 0.1411997675895691, 0.04598864167928696, 0.04568229243159294, 0.17512154579162598, -0.026434579864144325, 0.18306060135364532, -0.10364958643913269, 0.12495449930429459, -0.1184152290225029, 0.052756767719984055, 0.1401178538799286, 0.05722854286432266, 0.07775229215621948, 0.13290473818778992, -0.05219157412648201, -0.11892616748809814, -0.08091969043016434, -0.11037880182266235, -0.13854771852493286, -0.0813787654042244, 0.06042421981692314, 0.06886517256498337, 0.16976654529571533, 0.005185690708458424, -0.033993761986494064, 0.19293354451656342, 0.008362430147826672, 0.13426557183265686, -0.08284915238618851, -0.012948657386004925, -0.015547573566436768], [0.08067502826452255, 0.051045745611190796, -0.029847335070371628, 0.09924768656492233, 0.03310434892773628, -0.07861875742673874, -0.01438814029097557, 0.19482839107513428, 0.2189396768808365, 0.24708522856235504, 0.023516161367297173, 0.136301189661026, -0.031340181827545166, -0.10392898321151733, -0.06713221222162247, -0.038446083664894104, 0.09417072683572769, -0.026139939203858376, -0.0882381871342659, -0.08018399775028229, 0.0028817669954150915, 0.13481774926185608, 0.19439144432544708, -0.12696465849876404, -0.0648050606250763, 0.0961114838719368, 0.041942134499549866, 0.00920016597956419, 0.04059888422489166, -0.06826427578926086, 0.23095741868019104, -0.13769251108169556, -0.09809189289808273, -0.1867118626832962, -0.2944627106189728, 0.02097603864967823, 0.07549884170293808], [-0.07953809946775436, 0.1200331375002861, 0.1640295386314392, -0.08423645794391632, 0.03541705012321472, -0.05836031958460808, 0.058929070830345154, -0.0284640621393919, -0.06922393292188644, -0.34061405062675476, -0.13511469960212708, 0.20486967265605927, 0.041952963918447495, -0.054933466017246246, -0.052798692137002945, 0.14560936391353607, -0.08435054123401642, 0.004016879480332136, -0.16505256295204163, -0.2952502965927124, 0.17893308401107788, -0.08447062969207764, -0.014907373115420341, -0.0054376861080527306, 0.015671800822019577, 0.05876246467232704, 0.007475946098566055, 0.1689378321170807, -0.26006457209587097, -0.19311504065990448, 0.02124696783721447, 0.0451856292784214, 0.09877467900514603, 0.11744023114442825, -0.02386409603059292, -0.08129952847957611, 0.08578938245773315], [0.1590539515018463, 0.0310903899371624, -0.011441427282989025, 0.05596379563212395, 0.18474753201007843, 0.07989105582237244, -0.02078096754848957, -0.13633392751216888, -0.11398354917764664, -0.056187957525253296, -0.011941781267523766, 0.03157223016023636, 0.06458088010549545, 0.0384368933737278, 0.019045807421207428, -0.0394582524895668, 0.11489994078874588, 0.19642849266529083, 0.09614098817110062, 0.22895145416259766, -0.1712731122970581, 0.011886827647686005, 0.05732370540499687, -0.08816106617450714, 0.06973490864038467, -0.1746765524148941, 0.133560448884964, 0.19416508078575134, -0.06128423288464546, 0.23625987768173218, 0.08568563312292099, -0.007356359623372555, 0.1415317952632904, -0.08356815576553345, -0.20224830508232117, -0.013891994021832943, 0.0013169614830985665], [-0.01319990772753954, -0.005945685785263777, -0.07497105002403259, 0.023416245356202126, 0.13862007856369019, 0.2051691710948944, 0.06328734755516052, -0.004986682906746864, 0.021146388724446297, -0.31558963656425476, 0.03587903454899788, -0.07244211435317993, -0.02848290279507637, -0.015200790017843246, 0.09565649926662445, -0.0523134283721447, 0.03113357536494732, 0.0609130933880806, -0.1202547624707222, 0.12811483442783356, 0.15809424221515656, -0.03864724934101105, -0.015170810744166374, 0.030898798257112503, -0.2534274756908417, -0.05858071520924568, 0.196096271276474, 0.036196302622556686, -0.0023609925992786884, 0.2642592489719391, 0.09539249539375305, 0.04549786075949669, -0.04918105900287628, 0.017643174156546593, 0.05548783391714096, -0.014372061006724834, 0.055256668478250504], [-0.15696100890636444, -0.12061412632465363, 0.13393452763557434, 0.04475029930472374, 0.0160906333476305, 0.05230545252561569, -0.04137347638607025, -0.09385424852371216, 0.03869130462408066, -0.22057558596134186, -0.019901076331734657, -0.02616097778081894, 0.02606019377708435, -0.060805097222328186, -0.11335150897502899, -0.0690993145108223, -0.11865635961294174, 0.10623743385076523, -0.10522816330194473, 0.2016327828168869, 0.05737152695655823, -0.06218155845999718, 0.05737272650003433, -0.18130061030387878, -0.03613094985485077, -0.05821946635842323, -0.16898895800113678, -0.018751703202724457, -0.10694734007120132, 0.13155771791934967, -0.18139898777008057, 0.15337823331356049, 0.09391938149929047, 0.13371311128139496, -0.09171032905578613, -0.04853958263993263, -0.08159780502319336], [0.14022046327590942, -0.10866982489824295, -0.03560616075992584, -0.054928090423345566, -0.018380429595708847, -0.09123431146144867, 0.05963543429970741, -0.14143651723861694, 0.10868796706199646, 0.14568406343460083, -0.08257253468036652, -0.021804310381412506, 0.009700117632746696, -0.028225764632225037, -0.17500025033950806, 0.23340950906276703, 0.11010430753231049, -0.004751540254801512, 0.04803701490163803, -0.09947839379310608, -0.009441984817385674, -0.1070992574095726, -0.18392007052898407, -0.20476284623146057, -0.11544393002986908, 0.14154382050037384, -0.054870594292879105, -0.08645021915435791, -0.1445973962545395, -0.16141115128993988, -0.011448165401816368, 0.12168055772781372, 0.07904700189828873, 0.1563704013824463, -0.03507044538855553, 0.05583353713154793, 0.07818159461021423], [0.016132542863488197, -0.013452610932290554, 0.14915692806243896, 0.022274143993854523, -0.061680085957050323, 0.21611332893371582, 0.01928306557238102, 0.10707594454288483, -0.12357956916093826, -0.21799443662166595, 0.12490184605121613, 0.04077111929655075, -0.07091030478477478, 0.20160755515098572, 0.08538057655096054, 0.07056031376123428, 0.07154566049575806, 0.04536084085702896, 0.11393424868583679, -0.04754228889942169, -0.061707623302936554, 0.1153138279914856, 0.03683280944824219, 0.1532701998949051, 0.08979585021734238, 0.03643837571144104, 0.05222450569272041, 0.05515246465802193, -0.05765308812260628, -0.2529415488243103, 0.038017358630895615, 0.017273545265197754, 0.03976037725806236, 0.10960984230041504, 0.03942156955599785, 0.0710126981139183, -0.006877826992422342], [0.0709240511059761, 0.0013312302762642503, 0.029241276904940605, 0.07337803393602371, 0.1150282472372055, -0.1884264200925827, -0.048143502324819565, -0.043619364500045776, -0.04172531142830849, 0.44939517974853516, -0.1068505272269249, -0.18212509155273438, 0.08903929591178894, -0.056256212294101715, 0.06907681375741959, 0.10706547647714615, -0.0010981725063174963, 0.09935232251882553, -0.07396183907985687, 0.1811276078224182, 0.09723605960607529, -0.11951720714569092, 0.06599436700344086, -0.0869840681552887, -0.057226117700338364, 0.057349853217601776, -0.09039958566427231, 0.09987425059080124, 0.14119024574756622, 0.10291948914527893, -0.07999852299690247, -0.038711726665496826, 0.014281935058534145, 0.07911187410354614, 0.14979007840156555, 0.021175749599933624, 0.016135642305016518], [-0.026187852025032043, -0.10329170525074005, -0.15266713500022888, 0.029576880857348442, 0.008335236459970474, 0.09421864151954651, 0.16749733686447144, -0.04502527043223381, -0.05492665246129036, 0.19617626070976257, 0.0011990121565759182, -0.040135178714990616, 0.22382710874080658, 0.01866099424660206, 0.20017024874687195, 0.04673869535326958, -0.02473277412354946, 0.13110750913619995, -0.047973550856113434, 0.00692896731197834, 0.10607089847326279, 0.08939245343208313, -0.1474851369857788, 0.028849072754383087, 0.0595531165599823, 0.157807856798172, 0.11754430085420609, 0.10639245063066483, 0.03959491103887558, 0.0016506040701642632, 0.022613072767853737, 0.14310914278030396, -0.04425272345542908, -0.11731173098087311, 0.10918679088354111, -0.02197243459522724, -0.0009615911403670907], [0.11016082018613815, 0.03915499523282051, -0.11752784252166748, -0.09235978871583939, 0.060900647193193436, -0.036147117614746094, -0.07227551937103271, 0.08079247921705246, 0.02706565335392952, -0.11313194781541824, 0.2073039412498474, 0.06727634370326996, 0.1208966076374054, 0.04268329590559006, -0.08038127422332764, -0.011885564774274826, 0.03351306542754173, -0.010392232798039913, 0.025228533893823624, -0.21149681508541107, 0.02282080613076687, -0.017947981134057045, -0.033200010657310486, -0.0799470767378807, -0.1494491994380951, 0.08371217548847198, -0.017401423305273056, -0.21248452365398407, 0.24322959780693054, -0.05006353557109833, -0.12157576531171799, -0.13831216096878052, 0.172790065407753, 0.04390319436788559, 0.0015499506844207644, 0.05633493885397911, -0.027752559632062912], [-0.029558870941400528, 0.0010458682663738728, -0.11324455589056015, -0.12826596200466156, -0.12506558001041412, -0.10117857158184052, 0.15728886425495148, 0.07338707894086838, -0.05619613826274872, 0.11649155616760254, -0.18213801085948944, -0.056036919355392456, 0.10048092901706696, -0.11191593110561371, 0.14022843539714813, 0.04513635113835335, -0.1213151142001152, -0.12076419591903687, -0.026102175936102867, -0.08589985221624374, -0.022337650880217552, -0.0532398596405983, -0.09270475059747696, -0.022818103432655334, -0.10125710070133209, 0.09485150128602982, 0.0681457370519638, 0.007459758780896664, -0.018306495621800423, 0.026078324764966965, 0.2334529608488083, 0.12220461666584015, -0.13435408473014832, -0.086761973798275, -0.41436225175857544, 0.03680828586220741, 0.06300903856754303], [-0.0027749487198889256, -0.06915826350450516, -0.08630651235580444, 0.20542456209659576, 0.014437008649110794, 0.015610680915415287, -0.04194037243723869, -0.058873046189546585, 0.06276042759418488, -0.011863898485898972, -0.07342705130577087, 0.04745958000421524, 0.08753729611635208, -0.003883861470967531, -0.07017319649457932, -0.12361752241849899, 0.26467013359069824, 0.07837940007448196, 0.10095424950122833, 0.097904734313488, 0.1897246390581131, -0.06047624349594116, 0.11139565706253052, 0.053866710513830185, -0.013902994804084301, 0.08894641697406769, -0.01461322046816349, 0.08602722734212875, 0.09824733436107635, -0.13825073838233948, -0.09882663935422897, 0.07152335345745087, 0.09472928196191788, -0.08145766705274582, 0.12845389544963837, -0.05757766589522362, -0.08105286955833435], [0.039503179490566254, -0.027480099350214005, -0.04962678626179695, -0.07371479272842407, -0.021307697519659996, -0.27055081725120544, -0.08914537727832794, 0.11666128784418106, -0.021244565024971962, -0.037505246698856354, 0.061011578887701035, -0.2539684474468231, 0.008111679926514626, 0.1143578588962555, 0.19326920807361603, -0.13437406718730927, -0.001955045387148857, 0.0727917030453682, 0.1070847362279892, -0.11429321765899658, 0.08026883751153946, -0.022017385810613632, 0.08474098891019821, -0.015379992313683033, 0.2103312909603119, -0.15174749493598938, -0.04673652723431587, 0.05042411386966705, 0.11348816752433777, -0.09372888505458832, 0.054629020392894745, -0.04065406695008278, 0.0892125815153122, 0.09120281785726547, 0.15422865748405457, -0.05442526191473007, -0.019120311364531517], [0.04590965434908867, -0.1850566267967224, -0.013511622324585915, -0.09040800482034683, 0.03492411598563194, -0.013143294490873814, -0.08854308724403381, -0.1251174360513687, 0.07637089490890503, -0.1268525868654251, 0.048835575580596924, -0.08779710531234741, -0.015713725239038467, -0.007262775208801031, 0.03644717484712601, -0.07988680899143219, -0.003679374000057578, 0.00777710834518075, 0.1597876399755478, -0.15839068591594696, -0.11567649990320206, 0.08815412223339081, -0.06840561330318451, -0.12198298424482346, -0.18549826741218567, -0.1800120323896408, -0.12510181963443756, -0.06115129590034485, -0.12842212617397308, -0.12924714386463165, 0.03910402953624725, 0.09695971012115479, -0.11573607474565506, -0.04203357547521591, -0.01813461259007454, 0.08716751635074615, -0.10865969955921173], [-0.023553108796477318, 0.16625092923641205, 0.14468246698379517, -0.10822875797748566, 0.09858404844999313, 0.0600551962852478, -0.13445915281772614, -0.16430139541625977, -0.12332701683044434, -0.29540371894836426, -0.046352632343769073, 0.05545009300112724, 0.04796971008181572, -0.0907943844795227, 0.060272037982940674, 0.10441907495260239, -0.10226739943027496, 0.0752219706773758, 0.018291164189577103, 0.1861160695552826, 0.12540452182292938, 0.0527922548353672, 0.004748931620270014, -0.12435802817344666, 0.12759876251220703, 0.14394544064998627, -0.03393842279911041, -0.2124858945608139, 0.1206742599606514, -0.08870431035757065, -1.6082754882518202e-05, 0.03674252703785896, 0.11500615626573563, 0.1807389110326767, 0.20106962323188782, -0.06346398591995239, 0.07306890189647675], [0.0011921636760234833, 0.038607146590948105, -0.0682860016822815, -0.09066586196422577, -0.19012321531772614, 0.06268303096294403, 0.2041168212890625, 0.14493441581726074, 0.0848335549235344, -0.15184354782104492, 0.12823477387428284, -0.09090179204940796, -0.024432675912976265, -0.16645140945911407, -0.09690316021442413, -0.00727410102263093, 0.05527062714099884, -0.09423122555017471, -0.08069353550672531, -0.2337198108434677, -0.07355906814336777, 0.05605563521385193, -0.16899153590202332, -0.18261857330799103, -0.327203631401062, -0.09239586442708969, 0.042853306978940964, -0.17490588128566742, -0.04950225353240967, -0.015078292228281498, -0.019299522042274475, -0.01013206411153078, 0.046579428017139435, -0.03946870565414429, -0.3093821108341217, -0.2506272792816162, 0.07922687381505966], [-0.09834103286266327, 0.029785918071866035, -0.0031032476108521223, -0.10548765957355499, -0.03670959919691086, -0.09376337379217148, -0.06045786291360855, 0.04297050088644028, 0.1201922819018364, 0.10014542192220688, 0.1903197020292282, -0.1103978380560875, -0.0013294927775859833, -0.01427830383181572, -0.17212040722370148, 0.0010285148164257407, -0.01843269355595112, 0.08736690878868103, 0.13744737207889557, -0.008749513886868954, 0.07501770555973053, 0.0896119773387909, 0.08097122609615326, 0.10615767538547516, 0.1021297350525856, 0.21750429272651672, -0.1660791039466858, 0.06034122034907341, -0.056603480130434036, -0.1308380663394928, -0.005177428014576435, -0.026680488139390945, 0.17728479206562042, -0.07853661477565765, 0.10434874892234802, 0.032225415110588074, 0.008684122934937477], [0.12368059903383255, 0.09032415598630905, 0.0015109130181372166, 0.06009319797158241, -0.01360463909804821, 0.11614557355642319, 0.06553737819194794, -0.02942032366991043, 0.17413218319416046, 0.113845095038414, -0.15531200170516968, 0.1411014050245285, 0.19704720377922058, 0.007978946901857853, 0.0967770665884018, 0.1800910085439682, -0.0877748355269432, -0.0837266594171524, 0.008297278545796871, 0.15717536211013794, -0.1840609759092331, 0.07605601847171783, -0.0838082954287529, 0.08173718303442001, 0.23055687546730042, 0.006456166040152311, 0.23377957940101624, 0.016917390748858452, -0.05337582528591156, 0.1355406790971756, 0.10913313180208206, 0.07565818727016449, 0.15134303271770477, -0.03611253574490547, 0.2076265811920166, 0.03028496727347374, 0.05116548389196396], [0.04940672218799591, -0.004876967519521713, -0.1995542049407959, -0.12929023802280426, -0.020565394312143326, -0.05429144948720932, 0.11488254368305206, 0.09191029518842697, 0.1088433489203453, -0.138052299618721, -0.1973714828491211, -0.1290920376777649, 0.08041327446699142, -0.2214084267616272, -0.20800915360450745, -0.07192012667655945, -0.1237257719039917, -0.06920022517442703, -0.23302039504051208, -0.08150889724493027, 0.08537133038043976, -0.010769335553050041, 0.11707842350006104, -0.012864998541772366, -0.043765340000391006, -0.01122686080634594, -0.139156773686409, -0.13405053317546844, 0.027543675154447556, -0.08709295094013214, -0.21442855894565582, 0.13800647854804993, -0.11062822490930557, -0.03460447117686272, -0.1958678662776947, -0.10664656013250351, -0.11526165902614594], [0.10900738835334778, 0.0786500796675682, 0.0005929217441007495, -0.11143665760755539, -0.01937270723283291, -0.18723738193511963, 0.02767833322286606, -0.04760468378663063, -0.06723625212907791, -0.027132175862789154, 0.05125126987695694, 0.07040991634130478, 0.05930211395025253, -0.10862404108047485, -0.024570677429437637, -0.009542088955640793, -0.09246576577425003, 0.05034381523728371, -0.056600842624902725, 0.10253389179706573, -0.13916364312171936, -0.049867093563079834, 0.05450649559497833, -0.13409872353076935, 0.01533443946391344, -0.11938553303480148, -0.050535134971141815, -0.00042748209671117365, 0.05726548656821251, 0.11485335230827332, 0.06932441890239716, -0.08232469856739044, -0.07681483775377274, 0.003597105387598276, -0.013450393453240395, 0.13624827563762665, -0.06325339525938034], [0.1477670818567276, 0.14798791706562042, 0.1469944417476654, 0.03551003336906433, 0.051668524742126465, -0.030285002663731575, 0.1379716843366623, -0.08300640434026718, 0.06777669489383698, -0.06562201678752899, -0.03706994280219078, -0.00850165355950594, 0.13244470953941345, -0.0828813761472702, -0.038980066776275635, 0.15614213049411774, 0.020413951948285103, -0.14221438765525818, -0.11336351186037064, -0.19764664769172668, 0.19533400237560272, -0.10093265026807785, 0.1591205894947052, 0.11902031302452087, -0.14624473452568054, 0.018490981310606003, -0.1077180951833725, 0.03415147215127945, -0.023907259106636047, -0.06976448744535446, 0.14087381958961487, 0.051223624497652054, -0.017798908054828644, 0.05089550465345383, -0.13830217719078064, -0.005223652347922325, -0.004677846096456051], [-0.04540093615651131, 0.13133478164672852, 0.010433567687869072, -0.028025025501847267, -0.14664974808692932, -0.3085983693599701, 0.07373839616775513, 0.07871225476264954, -0.06623638421297073, -0.20232391357421875, 0.017654981464147568, 0.06622632592916489, 0.0951014831662178, -0.03141513466835022, -0.09221097081899643, -0.0698867216706276, 0.004689370281994343, -0.03118744306266308, -0.05420929193496704, -0.03473368659615517, -0.0004418011230882257, 0.13936883211135864, 0.16668137907981873, 0.10077975690364838, -0.10538790374994278, -0.176780566573143, 0.07106737792491913, 0.08866137266159058, 0.06252026557922363, -0.2696761190891266, -0.2664259374141693, 0.03616298735141754, 0.01613316498696804, -0.05255911499261856, -0.3722562789916992, 0.03014977090060711, -0.006820051930844784], [-0.0712793618440628, -0.11505453288555145, 0.008990619331598282, -0.07409883290529251, -0.060951802879571915, 0.004018690902739763, 0.03006037324666977, 0.06110046058893204, -0.12296081334352493, -0.058147113770246506, 0.12875017523765564, -0.011401213705539703, 0.05121190845966339, -0.07040531188249588, 0.0016254452057182789, -0.02219528891146183, -0.025599131360650063, 0.13890208303928375, -0.1660183072090149, -0.18933330476284027, -0.1116664782166481, -0.17224721610546112, -0.04492867365479469, -0.16265583038330078, -0.0021486554760485888, -0.05544323846697807, -0.10135967284440994, 0.017349714413285255, -0.10360392183065414, -0.01380781177431345, -0.1517627239227295, -0.10128367692232132, 0.09659602493047714, 0.005664304830133915, -0.02149546705186367, -0.0016254096990451217, 0.12331163883209229], [-0.03673378750681877, 0.09801915287971497, 0.14078129827976227, -0.06986484676599503, -0.031110282987356186, 0.06303472816944122, -0.022172871977090836, 0.12271042913198471, 0.16349604725837708, 0.623015284538269, 0.03902093321084976, -0.10993889719247818, 0.11117193102836609, 0.08443473279476166, 0.12312423437833786, 0.08163288980722427, 0.07582955062389374, 0.09364472329616547, 0.07570113241672516, -0.06645569950342178, 0.046733204275369644, -0.08928986638784409, -0.012419712729752064, 0.011362353339791298, -0.02620629221200943, -0.12231040745973587, 0.03278882056474686, -0.08283058553934097, 0.12588229775428772, 0.1363942176103592, -0.13367711007595062, 0.09016738831996918, -0.102014921605587, 0.07532426714897156, 0.16327045857906342, -0.05072525143623352, 0.10139303654432297], [-0.15464197099208832, -0.12629398703575134, -0.09233864396810532, 0.03379308432340622, 0.1940215528011322, 0.016488362103700638, 0.016657551750540733, 0.0007926884572952986, -0.15504315495491028, 0.10704102367162704, -0.06604230403900146, -0.11885090172290802, -0.17759384214878082, 0.1506613790988922, -0.025945454835891724, 0.0593172088265419, -0.06016625091433525, -0.15861859917640686, 0.12651678919792175, 0.058046650141477585, -0.050049398094415665, -0.06490129977464676, -0.0520758330821991, 0.11542250961065292, -0.03465937823057175, -0.11880534887313843, -0.030505750328302383, -0.03260134533047676, -0.025717059150338173, 0.1595173180103302, -0.18229039013385773, 0.1541721671819687, 0.09848526865243912, -0.11507241427898407, -0.02817666530609131, -0.010528773069381714, -0.07558957487344742], [0.13303425908088684, -0.11617262661457062, 0.1108461245894432, -0.14132525026798248, 0.03440700098872185, 0.20991221070289612, 0.12849891185760498, -0.06579683721065521, 0.07805812358856201, -0.3403668701648712, 0.11306898295879364, 0.137910395860672, -0.08828441053628922, 0.01789528876543045, -0.11671052873134613, -0.006463332567363977, 0.06744809448719025, 0.0025549924466758966, 0.010940480045974255, 0.18462461233139038, 0.1693718433380127, 0.12942585349082947, -0.061532679945230484, -0.15278662741184235, -0.35347798466682434, 0.099181167781353, 0.0012167115928605199, -0.07792417705059052, 0.08984731137752533, 0.12532338500022888, 0.1910342127084732, -0.03189058229327202, -0.0008624210604466498, -0.20298992097377777, -0.19869473576545715, -0.05487089604139328, 0.06618522852659225], [0.01896078698337078, -0.11673375219106674, -0.09204230457544327, -0.026802368462085724, -0.06898974627256393, -0.09364228695631027, 0.15058021247386932, 0.11518644541501999, -0.09536879509687424, 0.23106266558170319, 0.053125787526369095, 0.19285018742084503, 0.003435506485402584, 0.11818637698888779, 0.004320471081882715, 0.09009092301130295, 0.06004564091563225, -0.14438529312610626, 0.11944635212421417, 0.14600838720798492, -0.0762195736169815, 0.06171521171927452, 0.21972011029720306, 0.14683237671852112, 0.13913309574127197, 0.10660999268293381, -0.0793904960155487, 0.06749183684587479, -0.047551002353429794, 0.18797680735588074, -0.020903946831822395, 0.06022927165031433, -0.05592271685600281, 0.11075509339570999, 0.012065206654369831, 0.08486899733543396, -0.016351595520973206], [-0.1338137537240982, 0.08940008282661438, -0.08768471330404282, -0.12561912834644318, 0.030508866533637047, -0.13501529395580292, -0.027491051703691483, -0.030624326318502426, 0.029088303446769714, 0.21448735892772675, -0.04536612331867218, -0.032303255051374435, 0.08525621145963669, 0.04050251096487045, -0.06513620167970657, -0.14666374027729034, 0.08690078556537628, 0.015051416121423244, -0.023478133603930473, 0.08442441374063492, 0.1461150199174881, 0.015604821033775806, 0.09404851496219635, 0.04762006551027298, -0.07077787071466446, 0.029768256470561028, 0.12596826255321503, -0.07851500809192657, -0.014625734649598598, -0.08443215489387512, -0.0984339714050293, 0.020063502714037895, 0.12062184512615204, -0.06860233098268509, 0.128000408411026, 0.03330624848604202, 0.07626978307962418], [0.0706138163805008, 0.1754285991191864, 0.18131707608699799, -0.070010706782341, -0.0488227978348732, 0.20160797238349915, -0.09146532416343689, -0.07987835258245468, 0.03829014673829079, -0.12950387597084045, 0.13166218996047974, 0.05507824197411537, 0.14354772865772247, 0.0005613613757304847, 0.13134709000587463, 0.08807327598333359, -0.0011786666000261903, -0.12972787022590637, 0.21376371383666992, 0.01049298606812954, 0.16464106738567352, 0.09616269916296005, 0.0030319353099912405, -0.053749360144138336, 0.07143545895814896, 0.008362304419279099, 0.0405290313065052, -0.08627235889434814, 0.16890977323055267, -0.11906224489212036, 0.002817195374518633, 0.12043881416320801, -0.04475743696093559, 0.21546457707881927, 0.05089946091175079, -0.10741474479436874, 0.08370879292488098], [0.0743786096572876, 0.07030025869607925, -0.05513513460755348, -0.01234380528330803, -0.15751716494560242, 0.026217514649033546, -0.020185578614473343, 0.010198133066296577, 0.02001849189400673, 0.023847859352827072, 0.1846117377281189, 0.0028848431538790464, 0.12381131201982498, -0.13226407766342163, -0.31026336550712585, -0.031129853799939156, 0.08802034705877304, -0.06591569632291794, 0.059977248311042786, -0.01933838054537773, 0.20269536972045898, -0.03935978189110756, -0.022707931697368622, -0.021381428465247154, -0.2617248594760895, -0.11958720535039902, 0.002594027668237686, 0.19572582840919495, 0.06895070523023605, 0.10216271877288818, -0.22380056977272034, 0.12623047828674316, 0.10801322758197784, 0.2013961225748062, 0.24974088370800018, 0.03205473721027374, -0.021970871835947037], [-0.06823500245809555, -0.049096155911684036, 0.062116242945194244, -0.18990081548690796, -0.20033448934555054, -0.0028617759235203266, 0.05204484611749649, -0.12853993475437164, -0.14413641393184662, 0.027080047875642776, -0.09142804890871048, 0.1203116849064827, 0.056698206812143326, -0.07262279093265533, -0.15501654148101807, 0.22857365012168884, -0.00476063834503293, -0.1529548019170761, -0.12750577926635742, -0.1694534569978714, 0.0485868826508522, 0.05757199972867966, -0.10172568261623383, -0.019320102408528328, 0.07396271079778671, -0.08185335993766785, 0.026294758543372154, -0.014515368267893791, -0.13167348504066467, -0.004999162163585424, -0.15043997764587402, 0.05815756693482399, -0.006525020115077496, 0.11316341906785965, -0.14495772123336792, 0.0012779394164681435, 0.03154604136943817], [-0.08614251017570496, 0.10454726964235306, 0.00412027770653367, 0.18810205161571503, -0.012969407252967358, 0.12312779575586319, -0.18671530485153198, -0.07930810749530792, 0.055404774844646454, -0.4909462034702301, 0.16019804775714874, 0.1827434003353119, 0.1105731800198555, 0.10399964451789856, 0.03748026862740517, 0.06644278019666672, 0.052089814096689224, -0.11429653316736221, 0.02150815539062023, 0.03166181594133377, 0.012554862536489964, -0.15034882724285126, -0.10520829260349274, 0.08855811506509781, 0.004944659769535065, -0.12533077597618103, 0.04043126478791237, 0.12659193575382233, 0.2445896565914154, 0.24543224275112152, -0.12481778115034103, 0.06999962031841278, -0.04659198969602585, 0.1286114752292633, 0.17477580904960632, 0.02678927779197693, 0.05940864607691765], [0.1307610720396042, 0.04711134359240532, 0.11240468174219131, 0.053945574909448624, 0.011965812183916569, -0.10852806270122528, -0.0397159680724144, 0.03960706293582916, 0.149318665266037, 0.5941444635391235, 0.1262829750776291, 0.061900995671749115, 0.056061819195747375, 0.1461460441350937, -0.02238810621201992, 0.1649630069732666, -0.01087547279894352, 0.023809898644685745, -0.03411971777677536, -0.0028120011556893587, -0.031140528619289398, 0.0806473046541214, -0.002042855368927121, -0.014116940088570118, 0.11346900463104248, 0.144074484705925, -0.16501003503799438, -0.097415030002594, 0.036245476454496384, -0.08584219962358475, 0.20159970223903656, 0.09874149411916733, -0.04556092247366905, -0.0860222578048706, -0.18721403181552887, 0.01598784513771534, 0.04739787057042122], [-0.007504252716898918, -0.0664592981338501, -0.03172394633293152, -0.006625733803957701, 0.11078664660453796, 0.013493035919964314, 0.06257002055644989, -0.05164942517876625, -0.07445799559354782, -0.1013287603855133, -0.0430658683180809, -0.07371144741773605, -0.10914310812950134, -0.04774438217282295, -0.033225417137145996, 0.1169765293598175, -0.03249482437968254, -0.13352328538894653, -0.16514281928539276, -0.40539857745170593, -0.010977846570312977, 0.08346470445394516, -0.046633344143629074, 0.047002535313367844, 0.026686545461416245, 0.33887341618537903, -0.07251410186290741, -0.07870776206254959, -0.14107021689414978, -0.8275870680809021, 0.09126222878694534, -0.047391217201948166, 0.15050317347049713, -0.04251326248049736, 0.12033477425575256, 0.11045714467763901, 0.013044321909546852], [-0.026017747819423676, 0.18123304843902588, 0.18529962003231049, -0.0844135731458664, -0.027984967455267906, -0.08678960055112839, 0.13235527276992798, -0.028630387037992477, 0.03975760564208031, -0.07396364957094193, -0.0807659924030304, 0.07472660392522812, 0.13538280129432678, -0.0034711211919784546, 0.020464392378926277, 0.15302832424640656, 0.15967556834220886, 0.011351875960826874, 0.19755855202674866, 0.008944440633058548, 0.15393085777759552, 0.03148258104920387, -0.10565635561943054, 0.014993952587246895, -0.04060736298561096, 0.08377755433320999, -0.1101500615477562, 0.12888331711292267, -0.09247474372386932, 0.035652413964271545, 0.21589812636375427, 0.07520242780447006, -0.018928876146674156, 0.05280587449669838, -0.19934436678886414, -0.11010199785232544, -0.09011746197938919], [0.0810771957039833, 0.0831640213727951, -0.0005789823480881751, -0.05356938764452934, -0.18595007061958313, -0.04769136384129524, 0.08377867192029953, -0.039407264441251755, 0.01369786448776722, -0.07041101902723312, 0.20168575644493103, -0.15031713247299194, -0.045715056359767914, -0.13854092359542847, -0.3679978847503662, 0.02373572252690792, -0.005613858811557293, 0.10303255170583725, -0.0393245629966259, 0.008695999160408974, -0.03234264254570007, 0.15689964592456818, -0.031343527138233185, -0.0005613720277324319, 0.10153445601463318, 0.016561226919293404, -0.028315750882029533, 0.07937580347061157, 0.046670101583004, 0.030986815690994263, -0.0692041665315628, -0.15630516409873962, -0.09223810583353043, -0.1187233179807663, -0.07918176800012589, 0.006438023876398802, -0.0057376897893846035], [-0.0013507623225450516, -0.019192315638065338, -0.08012817800045013, 0.04218978434801102, -0.18177856504917145, -0.0558641254901886, -0.12903323769569397, 0.02486545220017433, 0.026760829612612724, 0.025343867018818855, 0.15609288215637207, -0.08483244478702545, 0.022220559418201447, 0.05439966544508934, 0.07682095468044281, 0.15033075213432312, -0.04794290289282799, -0.0063477992080152035, 0.04876745864748955, 0.02591589093208313, -0.01568746007978916, 0.11335952579975128, 0.09992972016334534, -0.03883714973926544, 0.02464669570326805, -0.16555318236351013, 0.07322078943252563, 0.11406964063644409, -0.041962217539548874, 0.06091482564806938, 0.07955120503902435, -0.00790910143405199, 0.0983060672879219, 0.05835530534386635, -0.17528018355369568, -0.12066585570573807, -0.12161677330732346], [-0.05531681329011917, 0.12497442960739136, -0.024489648640155792, 0.17497585713863373, 0.09375354647636414, 0.02066284790635109, 0.058038800954818726, 0.10200121253728867, 0.07844360917806625, 0.5901107788085938, -0.07317179441452026, 0.07431907206773758, 0.06311234086751938, -0.13511255383491516, -0.11147528886795044, 0.028358064591884613, -0.07912027090787888, -0.09084314107894897, 0.07283682376146317, 0.03510057553648949, 0.17122450470924377, -0.05637703463435173, -0.04243841394782066, 0.08582685142755508, -0.07000529766082764, 0.11181236803531647, -0.22198165953159332, 0.10202843695878983, -0.0019316176185384393, 0.2083539217710495, 0.021279066801071167, 0.037841420620679855, 0.07120126485824585, -0.1166011393070221, -0.15106604993343353, -0.1240253895521164, 0.08849000185728073], [0.13929028809070587, -0.0015292010502889752, -0.18001393973827362, 0.021505184471607208, -0.07439035922288895, 0.08781936764717102, -0.12204592674970627, -0.10177014768123627, 0.1123046725988388, -0.062272924929857254, -0.1265060156583786, -0.09102388471364975, -0.012889103032648563, 0.04897872731089592, 0.036911509931087494, -0.05851675197482109, -0.053514398634433746, -0.10508088022470474, -0.1767299771308899, -0.2111274003982544, 0.0737767443060875, -0.10777395963668823, -0.15017302334308624, -0.14937551319599152, -0.08614348620176315, -0.015979396179318428, -0.09916654229164124, -0.09492295235395432, 0.016515284776687622, -0.1639648675918579, -0.020565519109368324, -0.1586512327194214, -0.054431818425655365, -0.027941422536969185, -0.048379428684711456, 0.0016793424729257822, -0.10769205540418625], [0.019230039790272713, 0.08307971805334091, 0.16630397737026215, -0.025527503341436386, -0.0074131544679403305, -0.23404677212238312, 0.13347813487052917, -0.13326221704483032, -0.12666264176368713, -0.12157617509365082, -0.23618195950984955, 0.009560193866491318, 0.016319993883371353, -0.007480415515601635, -0.03158064931631088, 0.05822939798235893, -0.13485123217105865, -0.07259394973516464, -0.2023756504058838, 0.1581297218799591, -0.03735578805208206, -0.07069402933120728, 0.07383289188146591, -0.07670418173074722, -0.04755072295665741, -0.16523388028144836, -0.16955730319023132, 0.11269700527191162, 0.05759912356734276, 0.09277753531932831, 0.04627636447548866, -0.01885194703936577, -0.15270361304283142, -0.02255651168525219, 0.07165460288524628, -0.11534523218870163, -0.0031788810156285763], [0.048176202923059464, -0.1475927233695984, 0.01995508372783661, 0.1319538652896881, 0.16153068840503693, 0.03476111590862274, 0.0836268812417984, 0.08531853556632996, 0.008019576780498028, 0.0075896671041846275, -0.05172794312238693, 0.14724169671535492, 0.11321328580379486, -0.1116664782166481, -0.30444273352622986, -0.03553403541445732, -0.17188504338264465, -0.023878028616309166, 0.09593468904495239, 0.10268109291791916, -0.29187968373298645, 0.051000576466321945, 0.01906522735953331, -0.21669192612171173, -0.3360350430011749, -0.08011311292648315, 0.13730275630950928, -0.0014430043520405889, -0.10019925236701965, -0.03892092406749725, -0.04674788936972618, 0.10984903573989868, 0.09488644450902939, 0.019364261999726295, -0.0507374107837677, 0.017743350937962532, 0.0021377122029662132], [0.06678956001996994, -0.0002818741195369512, -0.17543941736221313, 0.023475613445043564, 0.1884612888097763, -0.07415246218442917, -0.08678609132766724, -0.17922453582286835, 0.04712165147066116, 0.018447892740368843, -0.052702926099300385, 0.1998804360628128, 0.05761510506272316, 0.07570681720972061, 0.015117151662707329, -0.09485733509063721, -0.0718708485364914, -0.17804066836833954, -0.02882767841219902, 0.04624231159687042, -0.03203117847442627, 0.08137103170156479, -0.012076578103005886, -0.1252116858959198, 0.26291805505752563, -0.0660894438624382, 0.10901559144258499, 0.05289332941174507, -0.14042459428310394, 0.2592194676399231, -0.0018235190073028207, -0.12014216929674149, -0.09824038296937943, -0.03263382241129875, 0.18896397948265076, -0.1563584953546524, 0.06746962666511536], [-0.092519611120224, 0.06125156208872795, 0.09752504527568817, -0.0008787877741269767, 0.0653710663318634, -0.006555912550538778, 0.0016109392745420337, -0.0665944442152977, 0.02411920763552189, -0.1684603989124298, -0.059511762112379074, -0.13539648056030273, -0.08370993286371231, -0.07626783102750778, 0.22231698036193848, 0.054234229028224945, 0.03472159057855606, 0.2433858960866928, 0.05840690806508064, -0.0710146576166153, 0.06977516412734985, -0.09172550588846207, -0.0682189017534256, 0.011235510930418968, -0.1431642472743988, -0.0688338652253151, 0.001338963396847248, -0.10904563963413239, 0.14910849928855896, 0.10849499702453613, 0.12424228340387344, 0.05581453815102577, 0.03729480504989624, 0.023925019428133965, -0.14970363676548004, 0.0945434495806694, -0.08931275457143784], [-0.15433937311172485, -0.03681626170873642, -0.1689051389694214, -0.0719699114561081, 0.002921409672126174, -0.06284372508525848, 0.12482734769582748, -0.11564353108406067, 0.0393705852329731, -0.10102538764476776, -0.07849278301000595, -0.021094216033816338, -0.16739314794540405, -0.1804410070180893, 0.008313477039337158, -0.12020435184240341, -0.050367504358291626, 0.05826076865196228, 0.09377787262201309, -0.13080403208732605, -0.013476897962391376, -0.1126507893204689, 0.015317480079829693, 0.09719835221767426, -0.0014794801827520132, -0.190542533993721, 0.14298343658447266, -0.022873632609844208, -0.15178176760673523, -0.0690227672457695, 0.08885017037391663, 0.012329635210335255, 0.039771080017089844, 0.05774930492043495, -0.04841666296124458, -0.013651927933096886, -0.08259785920381546], [0.16841399669647217, -0.052406251430511475, 0.0034331660717725754, -0.0702228844165802, 0.13359422981739044, -0.22308197617530823, 0.0024613405112177134, 0.0665929764509201, 0.027157101780176163, -0.04760577157139778, 0.02026226744055748, -0.12893445789813995, -0.010517301969230175, 0.041123732924461365, 0.13609156012535095, 0.19217552244663239, -0.060822922736406326, -0.023458758369088173, -0.15816497802734375, -0.1695842295885086, -0.12603247165679932, 0.05877283215522766, 0.0253214780241251, 0.07574163377285004, 0.12712563574314117, 0.001488027279265225, -0.0044503831304609776, 0.025705672800540924, -0.2418738454580307, 0.023335501551628113, 0.02224741131067276, -0.18088947236537933, 0.026099633425474167, -0.032541945576667786, -0.130466490983963, -0.09250741451978683, -0.07699396461248398], [0.01393132284283638, -0.04888312146067619, -0.007422219961881638, -0.06690558046102524, 0.0897991806268692, -0.05641332268714905, 0.10797119140625, 0.1727866232395172, -0.09928780794143677, 0.23091736435890198, -0.00875599030405283, 0.19037453830242157, 0.0894986093044281, -0.17597171664237976, 0.05738755315542221, 0.0001130093151004985, -0.008394960314035416, 0.13494724035263062, -0.07668738812208176, -0.0019742196891456842, 0.24261163175106049, 0.06638599932193756, 0.06946245580911636, -0.0775098204612732, -0.48216497898101807, -0.05743469297885895, -0.027245059609413147, 0.058882616460323334, 0.056171614676713943, 0.08923490345478058, 0.1464681327342987, 0.12537534534931183, 0.002132697030901909, -0.09901846945285797, -0.14790336787700653, 0.011172414757311344, -0.0006663758540526032], [-0.0041245464235544205, 0.07877271622419357, -0.019565226510167122, 0.07788967341184616, -0.005551781505346298, -0.03372514992952347, 0.06962977349758148, -0.0902908593416214, -0.007742366287857294, 0.0830375924706459, -0.22820088267326355, 0.04820297658443451, -0.07968036085367203, 0.14046287536621094, 0.11494915187358856, -0.0070453304797410965, 0.0656479001045227, -0.12258045375347137, -0.014759733341634274, 0.03550092130899429, -0.05996878445148468, 0.03364962339401245, -0.06278524547815323, 0.019591493532061577, 0.1359313577413559, 0.03786119818687439, 0.009463129565119743, 0.09431194514036179, -0.07945330440998077, -0.04063520208001137, -0.10070241242647171, 0.0781112089753151, -0.08772038668394089, -0.02576237916946411, 0.01194731704890728, -0.12676045298576355, -0.09169787913560867], [0.037124570459127426, 0.01302564237266779, -0.06049489974975586, -0.009910453110933304, -0.09298327565193176, -0.04253235086798668, -0.07573284953832626, 0.03390851989388466, -0.06013102829456329, 0.04843287169933319, -0.12932710349559784, -0.09723816066980362, -0.05405709519982338, -0.07604289054870605, 0.11956537514925003, 0.06392120569944382, 0.14104118943214417, 0.07074512541294098, 0.058869536966085434, -0.03054964356124401, -0.01885036751627922, 0.0036976051051169634, 0.03630049154162407, 0.05360664427280426, -0.03275507688522339, 0.2697962820529938, -0.2540434002876282, -0.08944573998451233, -0.19649095833301544, -0.8521284461021423, -0.09292453527450562, 0.0259238351136446, -0.04497038945555687, 0.07823879271745682, 0.11434575915336609, 0.0031354131642729044, -0.000758770271204412], [-0.04056974872946739, -0.07824865728616714, -0.052440788596868515, 0.16939525306224823, 0.04823245853185654, -0.01861584559082985, -0.1986950933933258, 0.05597624555230141, -0.2110556960105896, -0.36497434973716736, 0.11378669738769531, -0.0654170885682106, 0.1556704193353653, -0.12386525422334671, -0.18360474705696106, -0.1670023649930954, 0.052104413509368896, -0.09463075548410416, 0.13146638870239258, 0.05439312011003494, 0.13626298308372498, -0.08426665514707565, 0.07075567543506622, -0.09671079367399216, -0.22343948483467102, 0.1536492258310318, -0.01850980706512928, -0.09615374356508255, -0.030775519087910652, -0.33109286427497864, -0.0877424031496048, -0.01030865777283907, 0.12977129220962524, -0.035017289221286774, -0.10339566320180893, -0.05457630008459091, 0.11515650153160095], [-0.00269869901239872, 0.0630343034863472, 0.01501273550093174, -0.012165417894721031, 0.03692968562245369, 0.13343706727027893, 0.06840243190526962, 0.03887937217950821, 0.05305956304073334, -0.16151875257492065, 0.17927882075309753, -0.0016378890722990036, 0.07996029406785965, -0.02449309453368187, -0.22556941211223602, 0.017822332680225372, 0.04246411845088005, 0.16684037446975708, 0.045719001442193985, 0.02546885795891285, 0.13749989867210388, -0.01869373582303524, 0.11067017912864685, 0.05404665321111679, 0.05226219445466995, 0.13021007180213928, -0.11315493285655975, 0.06592278182506561, 0.12790724635124207, -0.17864379286766052, -0.11983481794595718, -0.0019076599273830652, -0.034569863229990005, 0.06856405735015869, 0.027997683733701706, -0.07179373502731323, -0.14068663120269775], [0.08188527822494507, 0.14103828370571136, 0.0050980448722839355, 0.13021701574325562, 0.07110051065683365, 0.034420453011989594, -0.05295657739043236, 0.11262426525354385, -0.0921604111790657, -0.11159438639879227, 0.0025962081272155046, -0.06688017398118973, 0.02121456153690815, -0.008928874507546425, -0.09300056099891663, 0.17774373292922974, 0.01824036054313183, 0.18190748989582062, 0.09353862702846527, -0.10397828370332718, 0.05179364234209061, 0.2066022902727127, -0.1263427436351776, -0.06102253869175911, -0.008751217275857925, 0.05113896355032921, 0.08051460981369019, 0.07070761173963547, -0.12154364585876465, 0.0034903583582490683, 0.060767319053411484, -0.014070960693061352, -0.01299203746020794, -0.09876827150583267, 0.011604647152125835, -0.19453935325145721, -0.02718736231327057], [0.13192982971668243, -0.060550838708877563, 0.12855882942676544, -0.048754289746284485, 0.05019187182188034, -0.0011759975459426641, 0.07982975244522095, 0.14703892171382904, 0.12055595964193344, -0.20088663697242737, 0.11869648844003677, 0.09385722875595093, -0.01887539029121399, -0.12481394410133362, 0.07834238559007645, 0.19403530657291412, -0.14426317811012268, -0.2298523634672165, -0.11731069535017014, 0.0431768037378788, 0.03897995501756668, -0.0007076534093357623, 0.10465933382511139, -0.14050021767616272, -0.09129230678081512, 0.03706371411681175, -0.007819698192179203, -0.04402082785964012, 0.02409946545958519, 0.010175754316151142, -0.11289817094802856, 0.2359151393175125, 0.11438440531492233, -0.14762958884239197, 0.077909916639328, 0.1279449611902237, -0.0633983239531517], [-0.1689724326133728, -0.14173460006713867, 0.05406484752893448, -0.013659581542015076, 0.017115801572799683, -0.1430320143699646, 0.0806332379579544, 0.05211501196026802, -0.16123074293136597, 0.07879359275102615, 0.05832724645733833, -0.008607232011854649, -0.10924846678972244, -0.07250282168388367, -0.15141181647777557, 0.07475477457046509, -0.07770270854234695, 0.10381204634904861, -0.10214027017354965, 0.022484971210360527, -0.17403557896614075, -0.03986649960279465, 0.06383217871189117, -0.20414716005325317, 0.048497915267944336, -0.18126805126667023, -0.025022728368639946, -0.17195002734661102, -0.12520276010036469, -0.11175988614559174, -0.04648394137620926, -0.0582495741546154, -0.14475923776626587, -0.04762624204158783, 0.09741882979869843, 0.18196415901184082, 0.12439064681529999], [0.11320287734270096, -0.08415959030389786, -0.02219524048268795, 0.09655804932117462, 0.1250087022781372, -0.05123871564865112, 0.05463416129350662, -0.13441522419452667, 0.1341651976108551, 0.23092934489250183, -0.09976549446582794, -0.15557661652565002, 0.1687832772731781, 0.005212809424847364, -0.032965198159217834, 0.009498769417405128, -0.04005824401974678, -0.006104554980993271, 0.03414997458457947, 0.19562563300132751, 0.02088574878871441, 0.045416414737701416, 0.05053434893488884, -0.08991961181163788, -0.0767691358923912, 0.06245839595794678, -0.05334016680717468, -0.05780617892742157, 0.055540259927511215, 0.14483480155467987, -0.11725075542926788, -0.009503655135631561, -0.05189371109008789, -0.13650016486644745, 0.08163381367921829, -0.025295287370681763, -0.07680393010377884], [-0.12213543802499771, 0.08464091271162033, -0.12494036555290222, -0.023424115031957626, 0.11758928000926971, -0.010216719470918179, -0.1691330373287201, -0.19849184155464172, 0.04978740215301514, -0.052667491137981415, -0.04506275802850723, 0.07910967618227005, -0.04612165316939354, 0.055985525250434875, -0.061085693538188934, -0.07060732692480087, -0.14986836910247803, 0.01973445527255535, -0.10062030702829361, 0.04386662691831589, -0.09438300877809525, 0.14121754467487335, -0.11566763371229172, -0.0577826052904129, -0.011805917136371136, -0.11158789694309235, 0.002948675537481904, -0.07502422481775284, 0.07304162532091141, 0.08621159940958023, 0.058709658682346344, -0.07531386613845825, 0.05333787575364113, -0.03149108588695526, -0.17119422554969788, 0.02122652344405651, -0.09395558387041092], [-0.08090554177761078, 0.09142160415649414, 0.13685768842697144, -0.061123352497816086, 0.03862779960036278, -0.17101529240608215, 0.037741519510746, 0.12397062033414841, 0.14587904512882233, 0.4995931088924408, -0.08682148903608322, -0.012789905071258545, -0.05898052453994751, 0.14865200221538544, 0.23721134662628174, 0.1471283882856369, 0.24560518562793732, 0.05727441981434822, -0.04827091470360756, -0.14590975642204285, 0.010115251876413822, -0.10271047800779343, 0.15182355046272278, 0.13911668956279755, 0.18667541444301605, -0.04406841844320297, 0.07460726797580719, 0.022576235234737396, -0.11311846971511841, 0.10340303182601929, 0.08340322971343994, -0.14079542458057404, 0.04160924628376961, -0.00695660337805748, 0.183842733502388, 0.10004764050245285, 0.026802698150277138], [0.1315610259771347, -0.16617846488952637, -0.1468963325023651, -0.17357923090457916, -0.09518755227327347, -0.12847651541233063, 0.12208851426839828, 0.08478710055351257, 0.07667332887649536, -0.13063941895961761, 0.08362987637519836, -0.041648317128419876, 0.021097591146826744, 0.0880386233329773, 0.1209154948592186, -0.1653955727815628, 0.12012190371751785, 0.0190681591629982, 0.09949318319559097, -0.15700124204158783, 0.08783619105815887, -0.09944220632314682, -0.17562486231327057, -0.0844765231013298, -0.01964189112186432, 0.0196660328656435, -0.19321857392787933, 0.07029245793819427, 0.1335827261209488, -0.207741379737854, 0.13005702197551727, -0.035121046006679535, 0.003575656097382307, 0.008893705904483795, -0.06575456261634827, 0.03188014402985573, -0.08529718220233917], [-0.15426798164844513, 0.1060604676604271, -0.005422096233814955, 0.05970320478081703, 0.12711066007614136, -0.24480672180652618, -0.04800809174776077, 0.11748555302619934, 0.10951323807239532, 0.2043916881084442, -0.005602557212114334, 0.06310096383094788, -0.08131342381238937, 0.0991162583231926, 0.09058120846748352, -0.014124576933681965, -0.16879847645759583, 0.06234575808048248, -0.017675237730145454, -0.0017843660898506641, 0.022754285484552383, -0.005945321638137102, -0.07311651855707169, 0.03567420691251755, 0.0768205001950264, -0.08860567957162857, -0.045089032500982285, -0.031913481652736664, 0.09451102465391159, 0.15792950987815857, 0.015034662559628487, 0.06767503917217255, 0.011705082841217518, 0.10987766832113266, 0.17817828059196472, 0.006601925473660231, -0.060098785907030106], [0.1472184658050537, -0.09859566390514374, 0.009354949928820133, -0.1504451036453247, -0.14446759223937988, 0.1878037452697754, -0.01996794529259205, 0.03379382565617561, -0.10580185800790787, 0.4330841898918152, 0.11916644871234894, -0.06677382439374924, 0.07653293758630753, -0.1537904590368271, -0.0819893330335617, -0.06424646824598312, 0.09172475337982178, 0.03635236993432045, -0.18219847977161407, 0.0925382599234581, 0.06210329756140709, 0.0023960720282047987, -0.00029303476912900805, -0.17270660400390625, 0.07569282501935959, 0.12056026607751846, 0.024068225175142288, 0.020936893299221992, 0.019340476021170616, -0.14951789379119873, 0.0897623747587204, -0.043634042143821716, -0.11095203459262848, -0.10097870230674744, -0.002393072936683893, -0.017646118998527527, 0.02934327721595764], [0.21247217059135437, 0.14039088785648346, -0.11361861228942871, 0.06474665552377701, -0.27461615204811096, -0.09510045498609543, 0.11026733368635178, 0.12796305119991302, 0.17713692784309387, 0.1300014853477478, -0.06910008192062378, 0.021952779963612556, -0.09496835619211197, 0.028200535103678703, 0.11470629274845123, 0.1173616275191307, -0.14997555315494537, -0.055158331990242004, -0.2074577361345291, -0.19646726548671722, 0.02885291911661625, -0.09458975493907928, -0.08697051554918289, 0.031209517270326614, 0.027568260207772255, 0.11789233982563019, 0.1125907301902771, 0.029326699674129486, -0.03457081317901611, -0.1405048370361328, -0.028927821666002274, 0.1843692809343338, 0.10870315879583359, -0.1049492284655571, -0.05908016115427017, -0.08482327312231064, -0.034825410693883896], [0.025555450469255447, 0.1608084738254547, 0.02940382808446884, 0.04083193466067314, 0.07025304436683655, -0.062678262591362, -0.147247314453125, 0.06835480779409409, 0.07215989381074905, 0.01681486889719963, 0.0896674320101738, -0.16238972544670105, -0.01817229948937893, 0.04508417844772339, -0.23486480116844177, 0.062184616923332214, 0.012718147598206997, 0.01233319379389286, 0.0742170512676239, -0.1619747430086136, -0.07625170797109604, -0.0718674436211586, -0.09469779580831528, 0.028679270297288895, -0.062411755323410034, -0.1563621610403061, 0.05847255885601044, -0.10326952487230301, 0.04809807613492012, 0.1472579687833786, -0.10697989165782928, 0.15808673202991486, 0.0430774986743927, -0.05316583812236786, 0.15290775895118713, 0.052108995616436005, -0.02070286124944687], [0.08456462621688843, -0.02063033916056156, -0.010812968015670776, 0.05986513942480087, 0.038918331265449524, 0.17437370121479034, 0.06058002635836601, 0.06297018378973007, -0.06412303447723389, -0.24295370280742645, 0.0541769340634346, -0.046105772256851196, 0.008839955553412437, -0.09870505332946777, -0.01757570542395115, -0.023507872596383095, 0.022207900881767273, -0.09236275404691696, 0.07977370917797089, 0.3034887909889221, -0.12538398802280426, -0.0027410576585680246, 0.0773644894361496, 0.12204474955797195, 0.1605684757232666, 0.08224665373563766, -0.14460033178329468, 0.12460151314735413, 0.10136987268924713, 0.2698853313922882, 0.011548036709427834, 0.02141774632036686, 0.09067557007074356, 0.2144104391336441, 0.35249367356300354, -0.033559396862983704, 0.014463299885392189], [-0.10288390517234802, 0.0865727886557579, 0.07448149472475052, -0.03291407972574234, 0.11563169211149216, 0.04587731137871742, 0.1276385635137558, -0.03856489807367325, 0.13064663112163544, -0.10805893689393997, -0.12884438037872314, 0.058956507593393326, 0.12110288441181183, -0.0038297264836728573, 0.014886870980262756, -0.16032959520816803, -0.08537770062685013, 0.09560853987932205, -0.1034323200583458, 0.05937717482447624, -0.015059751458466053, 0.008721141144633293, 0.05664856731891632, -0.05638516694307327, 0.02423599176108837, 0.2340591996908188, -0.018273821100592613, -0.17735987901687622, -0.03608325868844986, -0.44202756881713867, -0.05667710676789284, -0.03889156132936478, -0.07971083372831345, 0.07327168434858322, 0.05111582949757576, 0.011482320725917816, -0.025276264175772667], [-0.009654575958848, 0.03568481281399727, 0.0018886434845626354, -0.09679439663887024, -0.1703651249408722, 0.2294887900352478, 0.013289784081280231, -0.32529860734939575, -0.2475431263446808, -0.7955945730209351, -0.0012323333648964763, 0.09912404417991638, 0.06659478694200516, -0.01424767728894949, 0.06357071548700333, 0.053348541259765625, 0.03269757702946663, -0.07074685394763947, 0.0482693575322628, -0.2011852264404297, -0.06947217136621475, -0.07609176635742188, -0.0627903938293457, -0.13457590341567993, -0.02957785688340664, 0.06510140746831894, -0.044034700840711594, 0.02789677120745182, 0.01594039425253868, -0.1341490000486374, -0.044471852481365204, -0.19074349105358124, -0.11413417756557465, -0.20858074724674225, -0.2373122125864029, -0.07666264474391937, 0.06685599684715271], [0.05847330763936043, 0.20392541587352753, 0.14978420734405518, -0.05935190990567207, -0.12619860470294952, -0.03064998984336853, -0.04068295657634735, 0.17713528871536255, -0.08673250675201416, 0.008183865807950497, -0.024684004485607147, -0.15598943829536438, 0.022854771465063095, 0.13345225155353546, 0.13126902282238007, -0.16218219697475433, 0.05111440643668175, -0.048358798027038574, -0.052783288061618805, -0.21317332983016968, -0.1490989625453949, 0.08096804469823837, -0.0645030215382576, -0.18521907925605774, 0.25118857622146606, -0.1877325475215912, 0.1210019513964653, 0.19769151508808136, 0.11498105525970459, 0.041395094245672226, -0.07531356811523438, 0.0905580148100853, 0.03431139886379242, 0.04543785750865936, 0.11531905829906464, -0.02041752077639103, 0.09464408457279205], [0.13371889293193817, 0.10958303511142731, 0.06176304072141647, 0.06422466784715652, 0.11055620014667511, 0.10687469691038132, -0.10956437885761261, 0.040608011186122894, -0.057710520923137665, -0.21106182038784027, 0.14891745150089264, 0.0611974373459816, 0.05904949828982353, -0.0278397798538208, 0.12433873116970062, 0.22734621167182922, 0.03966305032372475, 0.10659319162368774, -0.09358716011047363, 0.1305612474679947, 0.09051092714071274, 0.17702196538448334, 0.107756607234478, -0.013858359307050705, 0.061957210302352905, 0.20842672884464264, 0.17978504300117493, -0.09087282419204712, 0.17978885769844055, 0.10111832618713379, 0.06893551349639893, -0.004543755203485489, 0.04471377655863762, -0.01642681285738945, 0.14817507565021515, -0.1251879185438156, 0.021908516064286232], [0.0058246878907084465, -0.018862294033169746, 0.0661076158285141, -0.05881800130009651, -0.26403629779815674, -0.11494649201631546, -0.08416681736707687, -0.036756280809640884, 0.01632649637758732, -0.015267870388925076, -0.0971371978521347, 0.05362604930996895, -0.23171280324459076, 0.12834690511226654, -0.05466856062412262, 0.1255260407924652, 0.05602537468075752, -0.021465571597218513, 0.01749299094080925, -0.18897117674350739, 0.0826384499669075, 0.08924105763435364, -0.0567559152841568, 0.02134457789361477, -0.05182109400629997, 0.13979816436767578, 0.007487498689442873, 0.04374663531780243, -0.1487729400396347, 0.060978204011917114, 0.023631153628230095, 0.04307703301310539, 0.005136845633387566, 0.09965053200721741, 0.0784633532166481, -0.08401660621166229, -0.0961192399263382], [0.18977274000644684, -0.07844516634941101, -0.02439236268401146, 0.01238581258803606, 0.14827297627925873, 0.06265527755022049, -0.009187024086713791, -0.08990500867366791, 0.15383543074131012, 0.0361408032476902, 0.12112579494714737, 0.10957188159227371, -0.05754053592681885, -0.08254630118608475, -0.13526390492916107, 0.11650362610816956, -0.27727872133255005, -0.14683540165424347, -0.10280553996562958, 0.1602327972650528, 0.12893146276474, -0.056912440806627274, -0.031707461923360825, -0.12739892303943634, -0.2367728054523468, -0.038204796612262726, -0.11963896453380585, -0.15030749142169952, -0.029469620436429977, 0.1737215518951416, -0.17422981560230255, 0.1659678816795349, -0.08659695088863373, -0.12166263163089752, 0.030240265652537346, -0.021036988124251366, 0.08462578058242798], [-0.08750422298908234, -0.09550482779741287, 0.006752724759280682, -0.037887174636125565, -0.1720990240573883, -0.1050148755311966, -0.05103849992156029, -0.013306165114045143, -0.2931183874607086, -0.054726630449295044, 0.06274202466011047, 0.14850956201553345, -0.06237635761499405, -0.13305015861988068, -0.09943804889917374, 0.08271171152591705, -0.0512925460934639, 0.006894298363476992, -0.2630091905593872, -0.21250788867473602, -0.022948242723941803, 0.037878260016441345, -0.09637440741062164, 0.037512946873903275, -0.05674155429005623, -0.005502653308212757, -0.12292927503585815, 0.04288865253329277, -0.02915075607597828, -0.026268798857927322, -0.08390720933675766, -0.15566687285900116, -0.1824188083410263, -0.16128596663475037, -0.04325835406780243, -0.03257026523351669, 0.11749718338251114], [-0.09833376109600067, 0.07355950027704239, 0.20705865323543549, 0.10302536934614182, -0.04219821095466614, 0.12196305394172668, 0.0564383864402771, 0.09463542699813843, -0.04950021579861641, -0.2388763725757599, -0.010976056568324566, -0.1154225617647171, 0.05918243154883385, -0.05840986222028732, -0.05573636293411255, -0.0011535518569871783, 0.15735676884651184, 0.23621511459350586, 0.02286241017282009, 0.2288491427898407, 0.2038329839706421, 0.18363526463508606, 0.07359875738620758, 0.16825272142887115, 0.026144269853830338, -0.02679264545440674, -0.08515801280736923, 0.030678903684020042, -0.052957095205783844, -0.04266130179166794, 0.19977495074272156, 0.2134871780872345, 0.1283183991909027, 0.019146978855133057, 